<?xml version="1.0"?>
<opencv_storage>
<cascade>
  <stageType>BOOST</stageType>
  <featureType>HAAR</featureType>
  <height>30</height>
  <width>45</width>
  <stageParams>
    <boostType>GAB</boostType>
    <minHitRate>9.9900001287460327e-01</minHitRate>
    <maxFalseAlarm>5.0000000000000000e-01</maxFalseAlarm>
    <weightTrimRate>9.4999999999999996e-01</weightTrimRate>
    <maxDepth>1</maxDepth>
    <maxWeakCount>100</maxWeakCount></stageParams>
  <featureParams>
    <maxCatCount>0</maxCatCount>
    <featSize>1</featSize>
    <mode>ALL</mode></featureParams>
  <stageNum>20</stageNum>
  <stages>
    <!-- stage 0 -->
    <_>
      <maxWeakCount>4</maxWeakCount>
      <stageThreshold>-1.3774602413177490e+00</stageThreshold>
      <weakClassifiers>
        <_>
          <internalNodes>
            0 -1 211 2.1775709465146065e-03</internalNodes>
          <leafValues>
            -7.7207064628601074e-01 9.0174001455307007e-01</leafValues></_>
        <_>
          <internalNodes>
            0 -1 260 2.8362527489662170e-02</internalNodes>
          <leafValues>
            -5.7844805717468262e-01 8.8044548034667969e-01</leafValues></_>
        <_>
          <internalNodes>
            0 -1 17 2.7873949875356629e-05</internalNodes>
          <leafValues>
            -5.7373225688934326e-01 7.7009636163711548e-01</leafValues></_>
        <_>
          <internalNodes>
            0 -1 228 9.6056967973709106e-02</internalNodes>
          <leafValues>
            -5.4665720462799072e-01 5.4679071903228760e-01</leafValues></_></weakClassifiers></_>
    <!-- stage 1 -->
    <_>
      <maxWeakCount>8</maxWeakCount>
      <stageThreshold>-1.5707056522369385e+00</stageThreshold>
      <weakClassifiers>
        <_>
          <internalNodes>
            0 -1 247 2.6424683630466461e-02</internalNodes>
          <leafValues>
            -6.2762761116027832e-01 8.7580299377441406e-01</leafValues></_>
        <_>
          <internalNodes>
            0 -1 15 3.2457195222377777e-02</internalNodes>
          <leafValues>
            -3.9330580830574036e-01 8.8763213157653809e-01</leafValues></_>
        <_>
          <internalNodes>
            0 -1 283 6.3056811690330505e-02</internalNodes>
          <leafValues>
            -2.8847351670265198e-01 6.9294863939285278e-01</leafValues></_>
        <_>
          <internalNodes>
            0 -1 84 -1.7929874360561371e-01</internalNodes>
          <leafValues>
            8.2727235555648804e-01 -2.3900708556175232e-01</leafValues></_>
        <_>
          <internalNodes>
            0 -1 19 1.3618758320808411e-01</internalNodes>
          <leafValues>
            -2.4583478271961212e-01 8.1231296062469482e-01</leafValues></_>
        <_>
          <internalNodes>
            0 -1 2 4.6723805367946625e-02</internalNodes>
          <leafValues>
            -3.0161926150321960e-01 7.8320264816284180e-01</leafValues></_>
        <_>
          <internalNodes>
            0 -1 362 4.2998386197723448e-04</internalNodes>
          <leafValues>
            3.7482547760009766e-01 -7.4864071607589722e-01</leafValues></_>
        <_>
          <internalNodes>
            0 -1 417 2.4517858400940895e-04</internalNodes>
          <leafValues>
            2.1565544605255127e-01 -7.3688811063766479e-01</leafValues></_></weakClassifiers></_>
    <!-- stage 2 -->
    <_>
      <maxWeakCount>11</maxWeakCount>
      <stageThreshold>-1.1016907691955566e+00</stageThreshold>
      <weakClassifiers>
        <_>
          <internalNodes>
            0 -1 259 3.6993157118558884e-02</internalNodes>
          <leafValues>
            -5.5102038383483887e-01 7.7985459566116333e-01</leafValues></_>
        <_>
          <internalNodes>
            0 -1 86 -4.1735697537660599e-02</internalNodes>
          <leafValues>
            7.8414452075958252e-01 -4.0298020839691162e-01</leafValues></_>
        <_>
          <internalNodes>
            0 -1 23 4.7018714249134064e-02</internalNodes>
          <leafValues>
            -2.1814705431461334e-01 7.5166606903076172e-01</leafValues></_>
        <_>
          <internalNodes>
            0 -1 220 2.4942421913146973e-01</internalNodes>
          <leafValues>
            -2.3648649454116821e-01 6.7775684595108032e-01</leafValues></_>
        <_>
          <internalNodes>
            0 -1 127 -1.1339636985212564e-03</internalNodes>
          <leafValues>
            4.5932593941688538e-01 -3.2735958695411682e-01</leafValues></_>
        <_>
          <internalNodes>
            0 -1 339 1.9793512183241546e-04</internalNodes>
          <leafValues>
            2.1213723719120026e-01 -7.0456331968307495e-01</leafValues></_>
        <_>
          <internalNodes>
            0 -1 387 1.1754799925256521e-04</internalNodes>
          <leafValues>
            2.2733083367347717e-01 -6.6175615787506104e-01</leafValues></_>
        <_>
          <internalNodes>
            0 -1 237 3.7394698709249496e-02</internalNodes>
          <leafValues>
            2.9150447249412537e-01 -5.1593339443206787e-01</leafValues></_>
        <_>
          <internalNodes>
            0 -1 24 1.0491797327995300e-01</internalNodes>
          <leafValues>
            -1.9465437531471252e-01 7.8543365001678467e-01</leafValues></_>
        <_>
          <internalNodes>
            0 -1 136 -4.7098052164074033e-05</internalNodes>
          <leafValues>
            -6.0532248020172119e-01 2.9674148559570312e-01</leafValues></_>
        <_>
          <internalNodes>
            0 -1 298 -5.3255055099725723e-03</internalNodes>
          <leafValues>
            8.3204579353332520e-01 -1.7800436913967133e-01</leafValues></_></weakClassifiers></_>
    <!-- stage 3 -->
    <_>
      <maxWeakCount>12</maxWeakCount>
      <stageThreshold>-1.6053595542907715e+00</stageThreshold>
      <weakClassifiers>
        <_>
          <internalNodes>
            0 -1 56 8.7010152637958527e-03</internalNodes>
          <leafValues>
            -3.7817257642745972e-01 8.5960590839385986e-01</leafValues></_>
        <_>
          <internalNodes>
            0 -1 261 3.7329010665416718e-02</internalNodes>
          <leafValues>
            -4.4777384400367737e-01 6.9444507360458374e-01</leafValues></_>
        <_>
          <internalNodes>
            0 -1 309 2.5956938043236732e-02</internalNodes>
          <leafValues>
            -4.0233567357063293e-01 4.6558412909507751e-01</leafValues></_>
        <_>
          <internalNodes>
            0 -1 189 -5.2303738892078400e-02</internalNodes>
          <leafValues>
            4.5378658175468445e-01 -3.4541183710098267e-01</leafValues></_>
        <_>
          <internalNodes>
            0 -1 290 -2.4358327500522137e-03</internalNodes>
          <leafValues>
            7.1259599924087524e-01 -2.4992212653160095e-01</leafValues></_>
        <_>
          <internalNodes>
            0 -1 275 6.6748475655913353e-03</internalNodes>
          <leafValues>
            -1.8728157877922058e-01 8.0382227897644043e-01</leafValues></_>
        <_>
          <internalNodes>
            0 -1 14 2.7828963473439217e-02</internalNodes>
          <leafValues>
            -2.2302626073360443e-01 5.9674590826034546e-01</leafValues></_>
        <_>
          <internalNodes>
            0 -1 328 -5.8000897988677025e-03</internalNodes>
          <leafValues>
            2.7969568967819214e-01 -4.4462755322456360e-01</leafValues></_>
        <_>
          <internalNodes>
            0 -1 383 -1.2659579806495458e-04</internalNodes>
          <leafValues>
            -5.8069723844528198e-01 3.0959412455558777e-01</leafValues></_>
        <_>
          <internalNodes>
            0 -1 141 -4.3590692803263664e-03</internalNodes>
          <leafValues>
            5.6487053632736206e-01 -2.3924171924591064e-01</leafValues></_>
        <_>
          <internalNodes>
            0 -1 114 1.4864921569824219e-02</internalNodes>
          <leafValues>
            -2.3404709994792938e-01 6.3464832305908203e-01</leafValues></_>
        <_>
          <internalNodes>
            0 -1 368 4.3211533920839429e-05</internalNodes>
          <leafValues>
            2.7436843514442444e-01 -5.8718091249465942e-01</leafValues></_></weakClassifiers></_>
    <!-- stage 4 -->
    <_>
      <maxWeakCount>16</maxWeakCount>
      <stageThreshold>-1.4349629878997803e+00</stageThreshold>
      <weakClassifiers>
        <_>
          <internalNodes>
            0 -1 287 1.0065913200378418e-02</internalNodes>
          <leafValues>
            -3.6798906326293945e-01 7.6985037326812744e-01</leafValues></_>
        <_>
          <internalNodes>
            0 -1 16 6.4742967486381531e-02</internalNodes>
          <leafValues>
            -2.4966582655906677e-01 6.4581245183944702e-01</leafValues></_>
        <_>
          <internalNodes>
            0 -1 322 -1.2821434065699577e-02</internalNodes>
          <leafValues>
            3.5550034046173096e-01 -5.4083174467086792e-01</leafValues></_>
        <_>
          <internalNodes>
            0 -1 392 2.0951931219315156e-05</internalNodes>
          <leafValues>
            2.5447672605514526e-01 -4.3207973241806030e-01</leafValues></_>
        <_>
          <internalNodes>
            0 -1 245 2.8363304212689400e-02</internalNodes>
          <leafValues>
            -1.8735921382904053e-01 7.5191086530685425e-01</leafValues></_>
        <_>
          <internalNodes>
            0 -1 32 1.0666855610907078e-02</internalNodes>
          <leafValues>
            -4.2042407393455505e-01 3.1818947196006775e-01</leafValues></_>
        <_>
          <internalNodes>
            0 -1 202 2.8631618246436119e-02</internalNodes>
          <leafValues>
            -3.7929373979568481e-01 2.6678901910781860e-01</leafValues></_>
        <_>
          <internalNodes>
            0 -1 391 1.3333941751625389e-05</internalNodes>
          <leafValues>
            2.2989894449710846e-01 -4.4125732779502869e-01</leafValues></_>
        <_>
          <internalNodes>
            0 -1 104 -2.3285303541342728e-05</internalNodes>
          <leafValues>
            -4.7315493226051331e-01 2.5154173374176025e-01</leafValues></_>
        <_>
          <internalNodes>
            0 -1 74 1.4214104339771438e-05</internalNodes>
          <leafValues>
            2.2652181982994080e-01 -5.0262928009033203e-01</leafValues></_>
        <_>
          <internalNodes>
            0 -1 291 2.3574626538902521e-05</internalNodes>
          <leafValues>
            2.4521972239017487e-01 -4.2842459678649902e-01</leafValues></_>
        <_>
          <internalNodes>
            0 -1 320 4.2931344360113144e-03</internalNodes>
          <leafValues>
            -1.6721770167350769e-01 5.7144075632095337e-01</leafValues></_>
        <_>
          <internalNodes>
            0 -1 180 -3.8983591366559267e-05</internalNodes>
          <leafValues>
            -3.3326447010040283e-01 2.7609658241271973e-01</leafValues></_>
        <_>
          <internalNodes>
            0 -1 297 4.9325134605169296e-03</internalNodes>
          <leafValues>
            -1.9103975594043732e-01 4.9471464753150940e-01</leafValues></_>
        <_>
          <internalNodes>
            0 -1 311 4.3364264070987701e-02</internalNodes>
          <leafValues>
            -1.7797411978244781e-01 6.5155225992202759e-01</leafValues></_>
        <_>
          <internalNodes>
            0 -1 432 3.7986328243277967e-04</internalNodes>
          <leafValues>
            1.8739224970340729e-01 -6.6286307573318481e-01</leafValues></_></weakClassifiers></_>
    <!-- stage 5 -->
    <_>
      <maxWeakCount>18</maxWeakCount>
      <stageThreshold>-1.2848596572875977e+00</stageThreshold>
      <weakClassifiers>
        <_>
          <internalNodes>
            0 -1 121 -1.3488253578543663e-02</internalNodes>
          <leafValues>
            7.3714286088943481e-01 -3.3793103694915771e-01</leafValues></_>
        <_>
          <internalNodes>
            0 -1 281 1.3662431389093399e-02</internalNodes>
          <leafValues>
            -2.8061103820800781e-01 6.4874291419982910e-01</leafValues></_>
        <_>
          <internalNodes>
            0 -1 332 -1.4166874811053276e-02</internalNodes>
          <leafValues>
            4.5721980929374695e-01 -2.9309579730033875e-01</leafValues></_>
        <_>
          <internalNodes>
            0 -1 33 5.1172465085983276e-02</internalNodes>
          <leafValues>
            -2.9431170225143433e-01 4.2274770140647888e-01</leafValues></_>
        <_>
          <internalNodes>
            0 -1 223 2.0351551473140717e-02</internalNodes>
          <leafValues>
            -5.5631244182586670e-01 1.9033093750476837e-01</leafValues></_>
        <_>
          <internalNodes>
            0 -1 403 -8.3103164797648787e-05</internalNodes>
          <leafValues>
            -6.1870092153549194e-01 1.9358839094638824e-01</leafValues></_>
        <_>
          <internalNodes>
            0 -1 89 1.3733815401792526e-02</internalNodes>
          <leafValues>
            -2.3146776854991913e-01 4.9904334545135498e-01</leafValues></_>
        <_>
          <internalNodes>
            0 -1 142 -9.7427889704704285e-03</internalNodes>
          <leafValues>
            6.4593231678009033e-01 -1.4702683687210083e-01</leafValues></_>
        <_>
          <internalNodes>
            0 -1 402 5.8998775784857571e-05</internalNodes>
          <leafValues>
            1.9629317522048950e-01 -5.7047772407531738e-01</leafValues></_>
        <_>
          <internalNodes>
            0 -1 429 -2.0967148884665221e-05</internalNodes>
          <leafValues>
            -3.4417271614074707e-01 2.7385830879211426e-01</leafValues></_>
        <_>
          <internalNodes>
            0 -1 9 7.3623314499855042e-02</internalNodes>
          <leafValues>
            -2.2687874734401703e-01 4.0384089946746826e-01</leafValues></_>
        <_>
          <internalNodes>
            0 -1 107 1.9410155800869688e-05</internalNodes>
          <leafValues>
            2.1429811418056488e-01 -4.2361545562744141e-01</leafValues></_>
        <_>
          <internalNodes>
            0 -1 327 1.6001662239432335e-02</internalNodes>
          <leafValues>
            -2.2115625441074371e-01 4.2174330353736877e-01</leafValues></_>
        <_>
          <internalNodes>
            0 -1 185 -7.1698066312819719e-04</internalNodes>
          <leafValues>
            2.6182702183723450e-01 -3.9020711183547974e-01</leafValues></_>
        <_>
          <internalNodes>
            0 -1 233 1.1966931924689561e-04</internalNodes>
          <leafValues>
            2.4819532036781311e-01 -4.1701701283454895e-01</leafValues></_>
        <_>
          <internalNodes>
            0 -1 125 -3.0696429312229156e-03</internalNodes>
          <leafValues>
            4.4700476527214050e-01 -2.2517244517803192e-01</leafValues></_>
        <_>
          <internalNodes>
            0 -1 292 4.7900239005684853e-03</internalNodes>
          <leafValues>
            -2.3704782128334045e-01 3.8958343863487244e-01</leafValues></_>
        <_>
          <internalNodes>
            0 -1 43 -2.4469627533107996e-04</internalNodes>
          <leafValues>
            -3.5911056399345398e-01 2.7878811955451965e-01</leafValues></_></weakClassifiers></_>
    <!-- stage 6 -->
    <_>
      <maxWeakCount>19</maxWeakCount>
      <stageThreshold>-1.1244573593139648e+00</stageThreshold>
      <weakClassifiers>
        <_>
          <internalNodes>
            0 -1 118 -2.4329226464033127e-02</internalNodes>
          <leafValues>
            6.6120219230651855e-01 -2.9927006363868713e-01</leafValues></_>
        <_>
          <internalNodes>
            0 -1 442 1.7741650342941284e-02</internalNodes>
          <leafValues>
            -2.5212350487709045e-01 6.1198455095291138e-01</leafValues></_>
        <_>
          <internalNodes>
            0 -1 384 -1.3606773791252635e-05</internalNodes>
          <leafValues>
            -3.7987977266311646e-01 2.9378622770309448e-01</leafValues></_>
        <_>
          <internalNodes>
            0 -1 439 2.9164247214794159e-02</internalNodes>
          <leafValues>
            -1.4757274091243744e-01 7.5769317150115967e-01</leafValues></_>
        <_>
          <internalNodes>
            0 -1 276 1.2257858179509640e-02</internalNodes>
          <leafValues>
            -1.6290074586868286e-01 6.5517467260360718e-01</leafValues></_>
        <_>
          <internalNodes>
            0 -1 80 -4.0335882658837363e-05</internalNodes>
          <leafValues>
            -4.1757601499557495e-01 2.5590455532073975e-01</leafValues></_>
        <_>
          <internalNodes>
            0 -1 191 -8.9723871496971697e-05</internalNodes>
          <leafValues>
            -4.8175379633903503e-01 1.8414373695850372e-01</leafValues></_>
        <_>
          <internalNodes>
            0 -1 45 1.1144229024648666e-01</internalNodes>
          <leafValues>
            -1.6846214234828949e-01 5.9170514345169067e-01</leafValues></_>
        <_>
          <internalNodes>
            0 -1 35 5.5459018796682358e-02</internalNodes>
          <leafValues>
            -2.0415003597736359e-01 5.3735584020614624e-01</leafValues></_>
        <_>
          <internalNodes>
            0 -1 218 2.2154013277031481e-04</internalNodes>
          <leafValues>
            -4.8861363530158997e-01 1.9753369688987732e-01</leafValues></_>
        <_>
          <internalNodes>
            0 -1 325 2.1918865968473256e-05</internalNodes>
          <leafValues>
            2.1922822296619415e-01 -4.5497378706932068e-01</leafValues></_>
        <_>
          <internalNodes>
            0 -1 371 -9.7011019533965737e-05</internalNodes>
          <leafValues>
            -4.8768764734268188e-01 1.8800669908523560e-01</leafValues></_>
        <_>
          <internalNodes>
            0 -1 373 4.5128974306862801e-05</internalNodes>
          <leafValues>
            1.7986582219600677e-01 -4.8856103420257568e-01</leafValues></_>
        <_>
          <internalNodes>
            0 -1 199 3.3341668546199799e-02</internalNodes>
          <leafValues>
            -2.5928983092308044e-01 3.7675857543945312e-01</leafValues></_>
        <_>
          <internalNodes>
            0 -1 55 -2.1192396059632301e-02</internalNodes>
          <leafValues>
            6.1064648628234863e-01 -1.3636992871761322e-01</leafValues></_>
        <_>
          <internalNodes>
            0 -1 179 2.3038372397422791e-02</internalNodes>
          <leafValues>
            -1.2682548165321350e-01 6.8078976869583130e-01</leafValues></_>
        <_>
          <internalNodes>
            0 -1 272 2.7075864374637604e-02</internalNodes>
          <leafValues>
            -1.8480491638183594e-01 4.5984295010566711e-01</leafValues></_>
        <_>
          <internalNodes>
            0 -1 386 -1.4779741832171567e-05</internalNodes>
          <leafValues>
            -3.8256800174713135e-01 2.8636071085929871e-01</leafValues></_>
        <_>
          <internalNodes>
            0 -1 310 1.0510187596082687e-02</internalNodes>
          <leafValues>
            -2.8957080841064453e-01 3.4028556942939758e-01</leafValues></_></weakClassifiers></_>
    <!-- stage 7 -->
    <_>
      <maxWeakCount>21</maxWeakCount>
      <stageThreshold>-1.0973393917083740e+00</stageThreshold>
      <weakClassifiers>
        <_>
          <internalNodes>
            0 -1 239 -4.4409395195543766e-03</internalNodes>
          <leafValues>
            6.0696005821228027e-01 -3.0979132652282715e-01</leafValues></_>
        <_>
          <internalNodes>
            0 -1 26 1.6647012904286385e-02</internalNodes>
          <leafValues>
            -2.4946017563343048e-01 6.3115680217742920e-01</leafValues></_>
        <_>
          <internalNodes>
            0 -1 117 -2.8819587081670761e-02</internalNodes>
          <leafValues>
            2.9167357087135315e-01 -4.0389105677604675e-01</leafValues></_>
        <_>
          <internalNodes>
            0 -1 399 2.3738852178212255e-05</internalNodes>
          <leafValues>
            2.1642947196960449e-01 -5.5251348018646240e-01</leafValues></_>
        <_>
          <internalNodes>
            0 -1 366 -1.1501641944050789e-02</internalNodes>
          <leafValues>
            2.3305532336235046e-01 -4.1646015644073486e-01</leafValues></_>
        <_>
          <internalNodes>
            0 -1 231 2.2685151547193527e-02</internalNodes>
          <leafValues>
            -1.3731984794139862e-01 8.1300532817840576e-01</leafValues></_>
        <_>
          <internalNodes>
            0 -1 430 -1.7042568651959300e-04</internalNodes>
          <leafValues>
            -4.8910698294639587e-01 2.3416098952293396e-01</leafValues></_>
        <_>
          <internalNodes>
            0 -1 347 -1.0631052646203898e-05</internalNodes>
          <leafValues>
            -4.8146814107894897e-01 1.3954058289527893e-01</leafValues></_>
        <_>
          <internalNodes>
            0 -1 354 1.8449786875862628e-04</internalNodes>
          <leafValues>
            1.5135630965232849e-01 -5.8072412014007568e-01</leafValues></_>
        <_>
          <internalNodes>
            0 -1 37 -3.0633611604571342e-02</internalNodes>
          <leafValues>
            3.6597409844398499e-01 -2.4113613367080688e-01</leafValues></_>
        <_>
          <internalNodes>
            0 -1 49 1.4790877699851990e-01</internalNodes>
          <leafValues>
            -1.3736824691295624e-01 6.5085244178771973e-01</leafValues></_>
        <_>
          <internalNodes>
            0 -1 306 3.1899853638606146e-05</internalNodes>
          <leafValues>
            2.4702344834804535e-01 -3.6410778760910034e-01</leafValues></_>
        <_>
          <internalNodes>
            0 -1 229 1.9470978528261185e-02</internalNodes>
          <leafValues>
            -3.4075084328651428e-01 2.4028463661670685e-01</leafValues></_>
        <_>
          <internalNodes>
            0 -1 78 4.2346211557742208e-05</internalNodes>
          <leafValues>
            2.0222572982311249e-01 -4.0333729982376099e-01</leafValues></_>
        <_>
          <internalNodes>
            0 -1 164 -1.3528060168027878e-02</internalNodes>
          <leafValues>
            5.9295588731765747e-01 -1.4303787052631378e-01</leafValues></_>
        <_>
          <internalNodes>
            0 -1 120 -6.9773029536008835e-03</internalNodes>
          <leafValues>
            4.1817358136177063e-01 -1.9585266709327698e-01</leafValues></_>
        <_>
          <internalNodes>
            0 -1 162 -1.1460489622550085e-04</internalNodes>
          <leafValues>
            -5.1893281936645508e-01 1.4849665760993958e-01</leafValues></_>
        <_>
          <internalNodes>
            0 -1 178 5.0784517079591751e-03</internalNodes>
          <leafValues>
            -1.0589727759361267e-01 8.3514529466629028e-01</leafValues></_>
        <_>
          <internalNodes>
            0 -1 338 -3.4957982279593125e-05</internalNodes>
          <leafValues>
            -3.1662729382514954e-01 2.6153430342674255e-01</leafValues></_>
        <_>
          <internalNodes>
            0 -1 317 -2.4847740307450294e-02</internalNodes>
          <leafValues>
            6.7271143198013306e-01 -1.2469408661127090e-01</leafValues></_>
        <_>
          <internalNodes>
            0 -1 210 1.8535791605245322e-04</internalNodes>
          <leafValues>
            1.8130528926849365e-01 -4.5128071308135986e-01</leafValues></_></weakClassifiers></_>
    <!-- stage 8 -->
    <_>
      <maxWeakCount>25</maxWeakCount>
      <stageThreshold>-1.2558733224868774e+00</stageThreshold>
      <weakClassifiers>
        <_>
          <internalNodes>
            0 -1 408 -9.3279685825109482e-03</internalNodes>
          <leafValues>
            6.2206333875656128e-01 -3.3655393123626709e-01</leafValues></_>
        <_>
          <internalNodes>
            0 -1 91 -2.3371245712041855e-02</internalNodes>
          <leafValues>
            6.5386044979095459e-01 -2.8324019908905029e-01</leafValues></_>
        <_>
          <internalNodes>
            0 -1 365 1.4139950275421143e-02</internalNodes>
          <leafValues>
            -1.3594624400138855e-01 6.2351316213607788e-01</leafValues></_>
        <_>
          <internalNodes>
            0 -1 284 7.0507708005607128e-03</internalNodes>
          <leafValues>
            -1.8888726830482483e-01 5.5719518661499023e-01</leafValues></_>
        <_>
          <internalNodes>
            0 -1 304 -5.6193917989730835e-03</internalNodes>
          <leafValues>
            6.9096273183822632e-01 -1.1846748739480972e-01</leafValues></_>
        <_>
          <internalNodes>
            0 -1 421 -1.5694469766458496e-05</internalNodes>
          <leafValues>
            -3.9051797986030579e-01 2.3480898141860962e-01</leafValues></_>
        <_>
          <internalNodes>
            0 -1 398 5.2900441005476750e-06</internalNodes>
          <leafValues>
            2.0289371907711029e-01 -5.1912862062454224e-01</leafValues></_>
        <_>
          <internalNodes>
            0 -1 8 1.4116693288087845e-02</internalNodes>
          <leafValues>
            -4.5565605163574219e-01 2.2242510318756104e-01</leafValues></_>
        <_>
          <internalNodes>
            0 -1 278 -2.9443390667438507e-03</internalNodes>
          <leafValues>
            2.0582076907157898e-01 -4.4293096661567688e-01</leafValues></_>
        <_>
          <internalNodes>
            0 -1 337 6.2166378484107554e-05</internalNodes>
          <leafValues>
            1.6896420717239380e-01 -4.0530255436897278e-01</leafValues></_>
        <_>
          <internalNodes>
            0 -1 314 -1.0854634456336498e-03</internalNodes>
          <leafValues>
            6.5452551841735840e-01 -1.2339084595441818e-01</leafValues></_>
        <_>
          <internalNodes>
            0 -1 301 4.3362593278288841e-03</internalNodes>
          <leafValues>
            -1.4177435636520386e-01 5.4175758361816406e-01</leafValues></_>
        <_>
          <internalNodes>
            0 -1 151 2.2899376926943660e-04</internalNodes>
          <leafValues>
            -2.0443838834762573e-01 3.9848279953002930e-01</leafValues></_>
        <_>
          <internalNodes>
            0 -1 437 4.7835285658948123e-04</internalNodes>
          <leafValues>
            1.1008447408676147e-01 -7.4019217491149902e-01</leafValues></_>
        <_>
          <internalNodes>
            0 -1 333 1.1653793044388294e-03</internalNodes>
          <leafValues>
            -1.1949754506349564e-01 6.7566680908203125e-01</leafValues></_>
        <_>
          <internalNodes>
            0 -1 407 -2.1075571567052975e-05</internalNodes>
          <leafValues>
            -4.0924385190010071e-01 1.9079546630382538e-01</leafValues></_>
        <_>
          <internalNodes>
            0 -1 268 2.3881573230028152e-02</internalNodes>
          <leafValues>
            -2.6216211915016174e-01 3.1655445694923401e-01</leafValues></_>
        <_>
          <internalNodes>
            0 -1 208 -5.2477070130407810e-04</internalNodes>
          <leafValues>
            -7.0502382516860962e-01 1.0524729639291763e-01</leafValues></_>
        <_>
          <internalNodes>
            0 -1 171 1.1140755377709866e-03</internalNodes>
          <leafValues>
            -1.2993286550045013e-01 5.9963506460189819e-01</leafValues></_>
        <_>
          <internalNodes>
            0 -1 96 1.4898758381605148e-02</internalNodes>
          <leafValues>
            -1.7123688757419586e-01 5.1872909069061279e-01</leafValues></_>
        <_>
          <internalNodes>
            0 -1 182 1.1377878487110138e-02</internalNodes>
          <leafValues>
            -1.0528771579265594e-01 6.8976902961730957e-01</leafValues></_>
        <_>
          <internalNodes>
            0 -1 105 -1.4339737390400842e-05</internalNodes>
          <leafValues>
            -4.1292357444763184e-01 2.0299023389816284e-01</leafValues></_>
        <_>
          <internalNodes>
            0 -1 320 4.2420513927936554e-03</internalNodes>
          <leafValues>
            -1.4969240128993988e-01 5.4362392425537109e-01</leafValues></_>
        <_>
          <internalNodes>
            0 -1 201 -1.1570961214601994e-02</internalNodes>
          <leafValues>
            -4.8740744590759277e-01 1.7671416699886322e-01</leafValues></_>
        <_>
          <internalNodes>
            0 -1 153 1.7134351655840874e-03</internalNodes>
          <leafValues>
            -1.5248879790306091e-01 4.7550222277641296e-01</leafValues></_></weakClassifiers></_>
    <!-- stage 9 -->
    <_>
      <maxWeakCount>20</maxWeakCount>
      <stageThreshold>-1.0781612396240234e+00</stageThreshold>
      <weakClassifiers>
        <_>
          <internalNodes>
            0 -1 288 1.2002937495708466e-02</internalNodes>
          <leafValues>
            -2.6203209161758423e-01 6.9953054189682007e-01</leafValues></_>
        <_>
          <internalNodes>
            0 -1 20 2.5569818913936615e-02</internalNodes>
          <leafValues>
            -2.0273034274578094e-01 5.5083483457565308e-01</leafValues></_>
        <_>
          <internalNodes>
            0 -1 222 2.0999308675527573e-02</internalNodes>
          <leafValues>
            -5.1948684453964233e-01 2.1066956222057343e-01</leafValues></_>
        <_>
          <internalNodes>
            0 -1 143 -3.0266661196947098e-02</internalNodes>
          <leafValues>
            2.7197524905204773e-01 -3.1459909677505493e-01</leafValues></_>
        <_>
          <internalNodes>
            0 -1 101 -1.3096384645905346e-04</internalNodes>
          <leafValues>
            -5.9189277887344360e-01 1.4124855399131775e-01</leafValues></_>
        <_>
          <internalNodes>
            0 -1 406 -5.4007791914045811e-04</internalNodes>
          <leafValues>
            -5.4563313722610474e-01 9.8770909011363983e-02</leafValues></_>
        <_>
          <internalNodes>
            0 -1 69 3.3376283681718633e-05</internalNodes>
          <leafValues>
            2.1993285417556763e-01 -3.5194289684295654e-01</leafValues></_>
        <_>
          <internalNodes>
            0 -1 52 5.5490095168352127e-02</internalNodes>
          <leafValues>
            -1.8872372806072235e-01 4.1243800520896912e-01</leafValues></_>
        <_>
          <internalNodes>
            0 -1 75 -2.0022169337607920e-05</internalNodes>
          <leafValues>
            -4.2413121461868286e-01 1.9174696505069733e-01</leafValues></_>
        <_>
          <internalNodes>
            0 -1 124 -2.2361506125889719e-04</internalNodes>
          <leafValues>
            2.5288218259811401e-01 -2.8878712654113770e-01</leafValues></_>
        <_>
          <internalNodes>
            0 -1 150 7.0082671009004116e-03</internalNodes>
          <leafValues>
            -1.7314667999744415e-01 5.5282789468765259e-01</leafValues></_>
        <_>
          <internalNodes>
            0 -1 364 -7.8627129551023245e-04</internalNodes>
          <leafValues>
            1.5794356167316437e-01 -5.8874386548995972e-01</leafValues></_>
        <_>
          <internalNodes>
            0 -1 443 -7.5166381429880857e-04</internalNodes>
          <leafValues>
            -6.2825775146484375e-01 1.1448965221643448e-01</leafValues></_>
        <_>
          <internalNodes>
            0 -1 12 -1.8789067689795047e-04</internalNodes>
          <leafValues>
            -6.0063523054122925e-01 1.0055654495954514e-01</leafValues></_>
        <_>
          <internalNodes>
            0 -1 224 5.4088234901428223e-02</internalNodes>
          <leafValues>
            -1.1986245214939117e-01 6.2933081388473511e-01</leafValues></_>
        <_>
          <internalNodes>
            0 -1 262 4.5790587319061160e-04</internalNodes>
          <leafValues>
            -3.9324444532394409e-01 2.3922987282276154e-01</leafValues></_>
        <_>
          <internalNodes>
            0 -1 303 7.9916004324331880e-05</internalNodes>
          <leafValues>
            2.0789229869842529e-01 -4.1571530699729919e-01</leafValues></_>
        <_>
          <internalNodes>
            0 -1 138 2.0055278582731262e-05</internalNodes>
          <leafValues>
            1.7621117830276489e-01 -4.4312530755996704e-01</leafValues></_>
        <_>
          <internalNodes>
            0 -1 3 3.4738674759864807e-02</internalNodes>
          <leafValues>
            -3.3275008201599121e-01 2.4157953262329102e-01</leafValues></_>
        <_>
          <internalNodes>
            0 -1 246 -3.9144717447925359e-05</internalNodes>
          <leafValues>
            2.5637900829315186e-01 -2.9222154617309570e-01</leafValues></_></weakClassifiers></_>
    <!-- stage 10 -->
    <_>
      <maxWeakCount>26</maxWeakCount>
      <stageThreshold>-1.2206318378448486e+00</stageThreshold>
      <weakClassifiers>
        <_>
          <internalNodes>
            0 -1 147 -4.0361154824495316e-03</internalNodes>
          <leafValues>
            5.5932205915451050e-01 -3.6059480905532837e-01</leafValues></_>
        <_>
          <internalNodes>
            0 -1 258 7.7119380235671997e-02</internalNodes>
          <leafValues>
            -2.8851920366287231e-01 5.1424866914749146e-01</leafValues></_>
        <_>
          <internalNodes>
            0 -1 422 -8.8090229837689549e-05</internalNodes>
          <leafValues>
            -4.1374069452285767e-01 1.9824081659317017e-01</leafValues></_>
        <_>
          <internalNodes>
            0 -1 334 -8.3255628123879433e-03</internalNodes>
          <leafValues>
            1.9278649985790253e-01 -3.9631271362304688e-01</leafValues></_>
        <_>
          <internalNodes>
            0 -1 22 3.7407595664262772e-04</internalNodes>
          <leafValues>
            -3.8005909323692322e-01 1.9606930017471313e-01</leafValues></_>
        <_>
          <internalNodes>
            0 -1 79 1.0581752576399595e-05</internalNodes>
          <leafValues>
            2.1072334051132202e-01 -4.0699204802513123e-01</leafValues></_>
        <_>
          <internalNodes>
            0 -1 167 -1.9349651120137423e-04</internalNodes>
          <leafValues>
            -4.8930054903030396e-01 1.6870370507240295e-01</leafValues></_>
        <_>
          <internalNodes>
            0 -1 286 -1.2099439278244972e-02</internalNodes>
          <leafValues>
            6.5905463695526123e-01 -1.4745083451271057e-01</leafValues></_>
        <_>
          <internalNodes>
            0 -1 158 2.6478481231606565e-05</internalNodes>
          <leafValues>
            2.1518868207931519e-01 -3.4060692787170410e-01</leafValues></_>
        <_>
          <internalNodes>
            0 -1 128 -4.8001093091443181e-04</internalNodes>
          <leafValues>
            3.0724218487739563e-01 -2.8561758995056152e-01</leafValues></_>
        <_>
          <internalNodes>
            0 -1 149 6.0112681239843369e-03</internalNodes>
          <leafValues>
            -1.5179379284381866e-01 5.0809633731842041e-01</leafValues></_>
        <_>
          <internalNodes>
            0 -1 51 1.3998362421989441e-01</internalNodes>
          <leafValues>
            -6.5367951989173889e-02 7.5774890184402466e-01</leafValues></_>
        <_>
          <internalNodes>
            0 -1 331 -2.8430527076125145e-02</internalNodes>
          <leafValues>
            6.7810702323913574e-01 -1.1992188543081284e-01</leafValues></_>
        <_>
          <internalNodes>
            0 -1 401 4.2397714423714206e-06</internalNodes>
          <leafValues>
            2.4067646265029907e-01 -3.0096608400344849e-01</leafValues></_>
        <_>
          <internalNodes>
            0 -1 186 -2.4548231158405542e-04</internalNodes>
          <leafValues>
            -5.1061922311782837e-01 1.3489259779453278e-01</leafValues></_>
        <_>
          <internalNodes>
            0 -1 204 3.7413216196000576e-03</internalNodes>
          <leafValues>
            7.3061585426330566e-02 -8.3141195774078369e-01</leafValues></_>
        <_>
          <internalNodes>
            0 -1 139 -6.8395383656024933e-02</internalNodes>
          <leafValues>
            2.5232622027397156e-01 -2.4382691085338593e-01</leafValues></_>
        <_>
          <internalNodes>
            0 -1 381 9.7453494163346477e-06</internalNodes>
          <leafValues>
            1.6968075931072235e-01 -3.7288361787796021e-01</leafValues></_>
        <_>
          <internalNodes>
            0 -1 251 -1.3752072118222713e-04</internalNodes>
          <leafValues>
            3.8909599184989929e-01 -1.8019928038120270e-01</leafValues></_>
        <_>
          <internalNodes>
            0 -1 330 1.8923470634035766e-05</internalNodes>
          <leafValues>
            1.4418570697307587e-01 -4.5888024568557739e-01</leafValues></_>
        <_>
          <internalNodes>
            0 -1 221 -7.4512464925646782e-04</internalNodes>
          <leafValues>
            2.2424305975437164e-01 -3.3843031525611877e-01</leafValues></_>
        <_>
          <internalNodes>
            0 -1 280 2.3193652741611004e-03</internalNodes>
          <leafValues>
            1.3059051334857941e-01 -5.1070356369018555e-01</leafValues></_>
        <_>
          <internalNodes>
            0 -1 431 1.9657141820061952e-05</internalNodes>
          <leafValues>
            -2.4870763719081879e-01 2.7359512448310852e-01</leafValues></_>
        <_>
          <internalNodes>
            0 -1 205 4.4457823969423771e-04</internalNodes>
          <leafValues>
            -2.4099989235401154e-01 2.8527292609214783e-01</leafValues></_>
        <_>
          <internalNodes>
            0 -1 413 -4.2943602238665335e-06</internalNodes>
          <leafValues>
            -3.8027837872505188e-01 1.9818831980228424e-01</leafValues></_>
        <_>
          <internalNodes>
            0 -1 289 -2.5304402224719524e-03</internalNodes>
          <leafValues>
            4.5320105552673340e-01 -1.6155712306499481e-01</leafValues></_></weakClassifiers></_>
    <!-- stage 11 -->
    <_>
      <maxWeakCount>28</maxWeakCount>
      <stageThreshold>-1.2238008975982666e+00</stageThreshold>
      <weakClassifiers>
        <_>
          <internalNodes>
            0 -1 54 9.2786494642496109e-03</internalNodes>
          <leafValues>
            -2.7152317762374878e-01 5.6626504659652710e-01</leafValues></_>
        <_>
          <internalNodes>
            0 -1 296 4.5074336230754852e-02</internalNodes>
          <leafValues>
            -2.3536446690559387e-01 5.7350301742553711e-01</leafValues></_>
        <_>
          <internalNodes>
            0 -1 129 1.0067102266475558e-05</internalNodes>
          <leafValues>
            2.4726012349128723e-01 -3.7995234131813049e-01</leafValues></_>
        <_>
          <internalNodes>
            0 -1 348 6.3557075336575508e-03</internalNodes>
          <leafValues>
            -2.0626869797706604e-01 3.7205418944358826e-01</leafValues></_>
        <_>
          <internalNodes>
            0 -1 145 3.8151651620864868e-02</internalNodes>
          <leafValues>
            -2.2267735004425049e-01 5.1848196983337402e-01</leafValues></_>
        <_>
          <internalNodes>
            0 -1 58 4.2804166674613953e-02</internalNodes>
          <leafValues>
            -9.0759910643100739e-02 5.7623487710952759e-01</leafValues></_>
        <_>
          <internalNodes>
            0 -1 135 1.5380810509668663e-05</internalNodes>
          <leafValues>
            1.9214549660682678e-01 -3.9910081028938293e-01</leafValues></_>
        <_>
          <internalNodes>
            0 -1 277 6.4748558215796947e-03</internalNodes>
          <leafValues>
            -1.2935119867324829e-01 5.5488938093185425e-01</leafValues></_>
        <_>
          <internalNodes>
            0 -1 60 -1.4330835640430450e-01</internalNodes>
          <leafValues>
            5.9967207908630371e-01 -1.3528825342655182e-01</leafValues></_>
        <_>
          <internalNodes>
            0 -1 412 1.5774723578942940e-05</internalNodes>
          <leafValues>
            2.6392096281051636e-01 -3.3884695172309875e-01</leafValues></_>
        <_>
          <internalNodes>
            0 -1 85 2.2129558783490211e-04</internalNodes>
          <leafValues>
            1.6877046227455139e-01 -4.1909813880920410e-01</leafValues></_>
        <_>
          <internalNodes>
            0 -1 203 1.6348878853023052e-04</internalNodes>
          <leafValues>
            -3.9471307396888733e-01 1.7534653842449188e-01</leafValues></_>
        <_>
          <internalNodes>
            0 -1 160 1.4105774425843265e-05</internalNodes>
          <leafValues>
            2.0552557706832886e-01 -3.7213632464408875e-01</leafValues></_>
        <_>
          <internalNodes>
            0 -1 73 2.6794672012329102e-02</internalNodes>
          <leafValues>
            -2.0836922526359558e-01 4.0328779816627502e-01</leafValues></_>
        <_>
          <internalNodes>
            0 -1 195 1.8329237354919314e-04</internalNodes>
          <leafValues>
            1.2952852249145508e-01 -4.9383133649826050e-01</leafValues></_>
        <_>
          <internalNodes>
            0 -1 358 -4.7710227590869181e-06</internalNodes>
          <leafValues>
            -3.2309100031852722e-01 2.0103669166564941e-01</leafValues></_>
        <_>
          <internalNodes>
            0 -1 67 1.0588105767965317e-02</internalNodes>
          <leafValues>
            -2.5867184996604919e-01 3.0394166707992554e-01</leafValues></_>
        <_>
          <internalNodes>
            0 -1 226 -3.4593213349580765e-02</internalNodes>
          <leafValues>
            4.6324577927589417e-01 -1.6066321730613708e-01</leafValues></_>
        <_>
          <internalNodes>
            0 -1 176 -8.4964018315076828e-03</internalNodes>
          <leafValues>
            7.7774089574813843e-01 -8.4117621183395386e-02</leafValues></_>
        <_>
          <internalNodes>
            0 -1 194 5.5135196816991083e-06</internalNodes>
          <leafValues>
            -2.2196617722511292e-01 2.8639137744903564e-01</leafValues></_>
        <_>
          <internalNodes>
            0 -1 238 2.3278113454580307e-02</internalNodes>
          <leafValues>
            -1.3419243693351746e-01 5.1821994781494141e-01</leafValues></_>
        <_>
          <internalNodes>
            0 -1 372 -1.5234427337418310e-05</internalNodes>
          <leafValues>
            -4.1846716403961182e-01 1.8344920873641968e-01</leafValues></_>
        <_>
          <internalNodes>
            0 -1 140 2.2608954459428787e-02</internalNodes>
          <leafValues>
            -1.0037150233983994e-01 6.6158241033554077e-01</leafValues></_>
        <_>
          <internalNodes>
            0 -1 302 1.3896978925913572e-03</internalNodes>
          <leafValues>
            -1.7282380163669586e-01 3.6718815565109253e-01</leafValues></_>
        <_>
          <internalNodes>
            0 -1 103 3.5875767935067415e-05</internalNodes>
          <leafValues>
            1.4197918772697449e-01 -5.1371663808822632e-01</leafValues></_>
        <_>
          <internalNodes>
            0 -1 111 -4.5244676584843546e-05</internalNodes>
          <leafValues>
            2.6793462038040161e-01 -2.3513697087764740e-01</leafValues></_>
        <_>
          <internalNodes>
            0 -1 404 -2.5188658037222922e-04</internalNodes>
          <leafValues>
            -5.2621322870254517e-01 1.2934103608131409e-01</leafValues></_>
        <_>
          <internalNodes>
            0 -1 108 1.5006412468210328e-05</internalNodes>
          <leafValues>
            1.4672939479351044e-01 -4.9230042099952698e-01</leafValues></_></weakClassifiers></_>
    <!-- stage 12 -->
    <_>
      <maxWeakCount>27</maxWeakCount>
      <stageThreshold>-1.0396727323532104e+00</stageThreshold>
      <weakClassifiers>
        <_>
          <internalNodes>
            0 -1 240 -3.2174496445804834e-03</internalNodes>
          <leafValues>
            5.3107345104217529e-01 -3.0483272671699524e-01</leafValues></_>
        <_>
          <internalNodes>
            0 -1 13 8.2459576427936554e-02</internalNodes>
          <leafValues>
            -2.5748872756958008e-01 5.3876608610153198e-01</leafValues></_>
        <_>
          <internalNodes>
            0 -1 415 -1.0399584425613284e-05</internalNodes>
          <leafValues>
            -4.0199175477027893e-01 1.9790434837341309e-01</leafValues></_>
        <_>
          <internalNodes>
            0 -1 385 2.2585149054066278e-05</internalNodes>
          <leafValues>
            1.7158307135105133e-01 -4.6082413196563721e-01</leafValues></_>
        <_>
          <internalNodes>
            0 -1 207 3.9089298807084560e-03</internalNodes>
          <leafValues>
            -4.6243736147880554e-01 1.4279596507549286e-01</leafValues></_>
        <_>
          <internalNodes>
            0 -1 308 1.2752649490721524e-04</internalNodes>
          <leafValues>
            2.3230606317520142e-01 -3.6530491709709167e-01</leafValues></_>
        <_>
          <internalNodes>
            0 -1 378 6.8779475986957550e-03</internalNodes>
          <leafValues>
            -2.1629041433334351e-01 2.9856806993484497e-01</leafValues></_>
        <_>
          <internalNodes>
            0 -1 350 3.0897127464413643e-02</internalNodes>
          <leafValues>
            -1.7752762138843536e-01 4.5003783702850342e-01</leafValues></_>
        <_>
          <internalNodes>
            0 -1 106 -4.7264111344702542e-06</internalNodes>
          <leafValues>
            -3.4823647141456604e-01 2.0779764652252197e-01</leafValues></_>
        <_>
          <internalNodes>
            0 -1 359 -4.2174925329163671e-04</internalNodes>
          <leafValues>
            -5.1245498657226562e-01 1.0205339640378952e-01</leafValues></_>
        <_>
          <internalNodes>
            0 -1 168 -6.6172941587865353e-03</internalNodes>
          <leafValues>
            6.0182929039001465e-01 -1.2692330777645111e-01</leafValues></_>
        <_>
          <internalNodes>
            0 -1 187 1.1553885415196419e-02</internalNodes>
          <leafValues>
            -1.7442299425601959e-01 4.1297939419746399e-01</leafValues></_>
        <_>
          <internalNodes>
            0 -1 81 -7.0473802043125033e-04</internalNodes>
          <leafValues>
            -5.7026237249374390e-01 1.1582707613706589e-01</leafValues></_>
        <_>
          <internalNodes>
            0 -1 0 3.5644699819386005e-03</internalNodes>
          <leafValues>
            1.0113337635993958e-01 -6.2337678670883179e-01</leafValues></_>
        <_>
          <internalNodes>
            0 -1 256 4.3210308067500591e-03</internalNodes>
          <leafValues>
            -1.0028017312288284e-01 6.3686722517013550e-01</leafValues></_>
        <_>
          <internalNodes>
            0 -1 321 -1.2212704867124557e-02</internalNodes>
          <leafValues>
            1.7504037916660309e-01 -4.0654093027114868e-01</leafValues></_>
        <_>
          <internalNodes>
            0 -1 123 1.1263562555541284e-05</internalNodes>
          <leafValues>
            1.6991150379180908e-01 -3.7985041737556458e-01</leafValues></_>
        <_>
          <internalNodes>
            0 -1 59 3.3389602322131395e-05</internalNodes>
          <leafValues>
            -2.5162181258201599e-01 2.4074856936931610e-01</leafValues></_>
        <_>
          <internalNodes>
            0 -1 190 2.8117597103118896e-03</internalNodes>
          <leafValues>
            -1.5505482256412506e-01 3.9632380008697510e-01</leafValues></_>
        <_>
          <internalNodes>
            0 -1 21 5.1296707242727280e-03</internalNodes>
          <leafValues>
            1.0160806775093079e-01 -6.1639952659606934e-01</leafValues></_>
        <_>
          <internalNodes>
            0 -1 356 7.8802288044244051e-05</internalNodes>
          <leafValues>
            1.0631694644689560e-01 -4.9767661094665527e-01</leafValues></_>
        <_>
          <internalNodes>
            0 -1 116 -9.7618401050567627e-02</internalNodes>
          <leafValues>
            4.5526540279388428e-01 -1.4655405282974243e-01</leafValues></_>
        <_>
          <internalNodes>
            0 -1 410 5.2930582314729691e-03</internalNodes>
          <leafValues>
            -1.3453374803066254e-01 4.2096489667892456e-01</leafValues></_>
        <_>
          <internalNodes>
            0 -1 40 -4.2737824514915701e-06</internalNodes>
          <leafValues>
            2.9233443737030029e-01 -2.0628216862678528e-01</leafValues></_>
        <_>
          <internalNodes>
            0 -1 380 -1.1175512554473244e-05</internalNodes>
          <leafValues>
            -3.8330799341201782e-01 1.4170135557651520e-01</leafValues></_>
        <_>
          <internalNodes>
            0 -1 271 -1.7769964411854744e-02</internalNodes>
          <leafValues>
            6.8937349319458008e-01 -1.0298299044370651e-01</leafValues></_>
        <_>
          <internalNodes>
            0 -1 342 5.1125329919159412e-03</internalNodes>
          <leafValues>
            -2.0847840607166290e-01 3.3022654056549072e-01</leafValues></_></weakClassifiers></_>
    <!-- stage 13 -->
    <_>
      <maxWeakCount>30</maxWeakCount>
      <stageThreshold>-1.1256288290023804e+00</stageThreshold>
      <weakClassifiers>
        <_>
          <internalNodes>
            0 -1 36 3.7474568933248520e-02</internalNodes>
          <leafValues>
            -1.8644067645072937e-01 5.9641253948211670e-01</leafValues></_>
        <_>
          <internalNodes>
            0 -1 305 1.5525488182902336e-02</internalNodes>
          <leafValues>
            -1.5960022807121277e-01 5.8926647901535034e-01</leafValues></_>
        <_>
          <internalNodes>
            0 -1 379 -4.6779882723058108e-06</internalNodes>
          <leafValues>
            -4.1424575448036194e-01 1.7898537218570709e-01</leafValues></_>
        <_>
          <internalNodes>
            0 -1 99 -7.1506802923977375e-03</internalNodes>
          <leafValues>
            4.5494395494461060e-01 -1.5647976100444794e-01</leafValues></_>
        <_>
          <internalNodes>
            0 -1 170 4.3445074697956443e-04</internalNodes>
          <leafValues>
            1.4565943181514740e-01 -4.8000875115394592e-01</leafValues></_>
        <_>
          <internalNodes>
            0 -1 166 -3.6328672431409359e-03</internalNodes>
          <leafValues>
            2.2771812975406647e-01 -3.2537999749183655e-01</leafValues></_>
        <_>
          <internalNodes>
            0 -1 336 1.9264373928308487e-02</internalNodes>
          <leafValues>
            -1.7019569873809814e-01 5.3440546989440918e-01</leafValues></_>
        <_>
          <internalNodes>
            0 -1 405 1.3918438926339149e-03</internalNodes>
          <leafValues>
            1.2953709065914154e-01 -7.1388041973114014e-01</leafValues></_>
        <_>
          <internalNodes>
            0 -1 377 5.8733932673931122e-03</internalNodes>
          <leafValues>
            -1.2544187903404236e-01 4.6133038401603699e-01</leafValues></_>
        <_>
          <internalNodes>
            0 -1 351 -9.2865875558345579e-06</internalNodes>
          <leafValues>
            -3.9420250058174133e-01 1.7259854078292847e-01</leafValues></_>
        <_>
          <internalNodes>
            0 -1 419 3.1245473772287369e-02</internalNodes>
          <leafValues>
            -1.3294646143913269e-01 4.6816471219062805e-01</leafValues></_>
        <_>
          <internalNodes>
            0 -1 4 2.3718021111562848e-04</internalNodes>
          <leafValues>
            9.0816505253314972e-02 -5.7954609394073486e-01</leafValues></_>
        <_>
          <internalNodes>
            0 -1 53 -2.7329323347657919e-04</internalNodes>
          <leafValues>
            1.7207369208335876e-01 -3.2712459564208984e-01</leafValues></_>
        <_>
          <internalNodes>
            0 -1 112 -1.0153431503567845e-04</internalNodes>
          <leafValues>
            -3.9233547449111938e-01 1.6290584206581116e-01</leafValues></_>
        <_>
          <internalNodes>
            0 -1 113 -5.6312587112188339e-03</internalNodes>
          <leafValues>
            4.4948425889015198e-01 -1.4268310368061066e-01</leafValues></_>
        <_>
          <internalNodes>
            0 -1 66 -3.1833034881856292e-05</internalNodes>
          <leafValues>
            -4.7413256764411926e-01 1.5471637248992920e-01</leafValues></_>
        <_>
          <internalNodes>
            0 -1 248 2.5476572773186490e-05</internalNodes>
          <leafValues>
            -2.0134070515632629e-01 2.9668796062469482e-01</leafValues></_>
        <_>
          <internalNodes>
            0 -1 360 -3.1275703804567456e-05</internalNodes>
          <leafValues>
            -2.8129965066909790e-01 2.0352226495742798e-01</leafValues></_>
        <_>
          <internalNodes>
            0 -1 216 -2.1870059426873922e-03</internalNodes>
          <leafValues>
            2.0322963595390320e-01 -3.1061249971389771e-01</leafValues></_>
        <_>
          <internalNodes>
            0 -1 418 -1.1468373486422934e-05</internalNodes>
          <leafValues>
            -4.0709340572357178e-01 1.3895906507968903e-01</leafValues></_>
        <_>
          <internalNodes>
            0 -1 188 1.1788024567067623e-02</internalNodes>
          <leafValues>
            -1.2460377067327499e-01 4.9578574299812317e-01</leafValues></_>
        <_>
          <internalNodes>
            0 -1 57 -4.3771122582256794e-03</internalNodes>
          <leafValues>
            3.8708394765853882e-01 -1.8973989784717560e-01</leafValues></_>
        <_>
          <internalNodes>
            0 -1 18 -3.7916138768196106e-02</internalNodes>
          <leafValues>
            -5.8051896095275879e-01 1.1068318784236908e-01</leafValues></_>
        <_>
          <internalNodes>
            0 -1 343 -8.2185026258230209e-05</internalNodes>
          <leafValues>
            -5.4808104038238525e-01 1.1445225030183792e-01</leafValues></_>
        <_>
          <internalNodes>
            0 -1 427 4.8079987209348474e-06</internalNodes>
          <leafValues>
            -1.8946978449821472e-01 3.5038173198699951e-01</leafValues></_>
        <_>
          <internalNodes>
            0 -1 159 -9.9604258139152080e-06</internalNodes>
          <leafValues>
            -3.7865898013114929e-01 1.5889509022235870e-01</leafValues></_>
        <_>
          <internalNodes>
            0 -1 159 4.8294659791281447e-05</internalNodes>
          <leafValues>
            1.5630708634853363e-01 -3.6993414163589478e-01</leafValues></_>
        <_>
          <internalNodes>
            0 -1 227 4.2832130020542536e-06</internalNodes>
          <leafValues>
            -2.0094150304794312e-01 3.2925698161125183e-01</leafValues></_>
        <_>
          <internalNodes>
            0 -1 42 -1.5648297267034650e-03</internalNodes>
          <leafValues>
            4.5319998264312744e-01 -1.4354310929775238e-01</leafValues></_>
        <_>
          <internalNodes>
            0 -1 154 -1.9078073819400743e-05</internalNodes>
          <leafValues>
            2.6997935771942139e-01 -2.9486072063446045e-01</leafValues></_></weakClassifiers></_>
    <!-- stage 14 -->
    <_>
      <maxWeakCount>28</maxWeakCount>
      <stageThreshold>-1.0219278335571289e+00</stageThreshold>
      <weakClassifiers>
        <_>
          <internalNodes>
            0 -1 250 -2.3653698153793812e-03</internalNodes>
          <leafValues>
            5.2109909057617188e-01 -2.2547331452369690e-01</leafValues></_>
        <_>
          <internalNodes>
            0 -1 93 1.7654843628406525e-02</internalNodes>
          <leafValues>
            -2.5349521636962891e-01 3.8435202836990356e-01</leafValues></_>
        <_>
          <internalNodes>
            0 -1 152 -9.2577511168201454e-06</internalNodes>
          <leafValues>
            -3.7637868523597717e-01 1.8724505603313446e-01</leafValues></_>
        <_>
          <internalNodes>
            0 -1 152 4.0557815736974590e-06</internalNodes>
          <leafValues>
            1.8232621252536774e-01 -3.9377573132514954e-01</leafValues></_>
        <_>
          <internalNodes>
            0 -1 7 7.1710035204887390e-02</internalNodes>
          <leafValues>
            -2.2520764172077179e-01 2.9043328762054443e-01</leafValues></_>
        <_>
          <internalNodes>
            0 -1 236 2.1635589003562927e-01</internalNodes>
          <leafValues>
            -1.5269871056079865e-01 6.7178797721862793e-01</leafValues></_>
        <_>
          <internalNodes>
            0 -1 374 1.0158282748307101e-05</internalNodes>
          <leafValues>
            2.5184723734855652e-01 -3.2001280784606934e-01</leafValues></_>
        <_>
          <internalNodes>
            0 -1 63 1.2486608326435089e-01</internalNodes>
          <leafValues>
            -1.3859708607196808e-01 7.3975092172622681e-01</leafValues></_>
        <_>
          <internalNodes>
            0 -1 100 2.0059484086232260e-05</internalNodes>
          <leafValues>
            2.2025232017040253e-01 -2.9603067040443420e-01</leafValues></_>
        <_>
          <internalNodes>
            0 -1 270 5.2102301269769669e-02</internalNodes>
          <leafValues>
            -2.0317324995994568e-01 3.1412741541862488e-01</leafValues></_>
        <_>
          <internalNodes>
            0 -1 39 -1.5029209852218628e-01</internalNodes>
          <leafValues>
            5.8692198991775513e-01 -1.2354951351881027e-01</leafValues></_>
        <_>
          <internalNodes>
            0 -1 64 2.3351686075329781e-02</internalNodes>
          <leafValues>
            -1.4998547732830048e-01 4.9408161640167236e-01</leafValues></_>
        <_>
          <internalNodes>
            0 -1 242 -4.2832130020542536e-06</internalNodes>
          <leafValues>
            3.5768195986747742e-01 -1.7703448235988617e-01</leafValues></_>
        <_>
          <internalNodes>
            0 -1 367 -1.0908945114351809e-05</internalNodes>
          <leafValues>
            -3.2837322354316711e-01 1.9650442898273468e-01</leafValues></_>
        <_>
          <internalNodes>
            0 -1 148 2.5093685835599899e-03</internalNodes>
          <leafValues>
            -7.5298011302947998e-02 8.5721170902252197e-01</leafValues></_>
        <_>
          <internalNodes>
            0 -1 395 -4.8813881221576594e-06</internalNodes>
          <leafValues>
            -4.2755827307701111e-01 1.4906099438667297e-01</leafValues></_>
        <_>
          <internalNodes>
            0 -1 396 1.5980976968421601e-05</internalNodes>
          <leafValues>
            2.1303617954254150e-01 -3.2403913140296936e-01</leafValues></_>
        <_>
          <internalNodes>
            0 -1 264 1.0669735274859704e-05</internalNodes>
          <leafValues>
            -2.3387351632118225e-01 3.3667215704917908e-01</leafValues></_>
        <_>
          <internalNodes>
            0 -1 165 5.1921658217906952e-02</internalNodes>
          <leafValues>
            -1.1320240050554276e-01 5.7062000036239624e-01</leafValues></_>
        <_>
          <internalNodes>
            0 -1 393 -1.4177332632243633e-03</internalNodes>
          <leafValues>
            1.6316780447959900e-01 -3.8759595155715942e-01</leafValues></_>
        <_>
          <internalNodes>
            0 -1 436 1.7510496545583010e-03</internalNodes>
          <leafValues>
            8.2712270319461823e-02 -6.8187165260314941e-01</leafValues></_>
        <_>
          <internalNodes>
            0 -1 197 1.0639230822562240e-05</internalNodes>
          <leafValues>
            -2.4575172364711761e-01 2.3057615756988525e-01</leafValues></_>
        <_>
          <internalNodes>
            0 -1 196 -4.7781848115846515e-04</internalNodes>
          <leafValues>
            -5.6990432739257812e-01 1.0386433452367783e-01</leafValues></_>
        <_>
          <internalNodes>
            0 -1 169 1.2047237760270946e-05</internalNodes>
          <leafValues>
            -2.4806167185306549e-01 2.5835409760475159e-01</leafValues></_>
        <_>
          <internalNodes>
            0 -1 441 2.0163621753454208e-02</internalNodes>
          <leafValues>
            6.5539009869098663e-02 -8.3583915233612061e-01</leafValues></_>
        <_>
          <internalNodes>
            0 -1 333 -1.8914951942861080e-03</internalNodes>
          <leafValues>
            6.4190393686294556e-01 -9.9075652658939362e-02</leafValues></_>
        <_>
          <internalNodes>
            0 -1 352 -4.7563767111569177e-06</internalNodes>
          <leafValues>
            -3.5263702273368835e-01 1.6809985041618347e-01</leafValues></_>
        <_>
          <internalNodes>
            0 -1 318 -5.8852652728091925e-05</internalNodes>
          <leafValues>
            3.1889194250106812e-01 -1.8405029177665710e-01</leafValues></_></weakClassifiers></_>
    <!-- stage 15 -->
    <_>
      <maxWeakCount>31</maxWeakCount>
      <stageThreshold>-1.0368851423263550e+00</stageThreshold>
      <weakClassifiers>
        <_>
          <internalNodes>
            0 -1 249 -4.5861331745982170e-03</internalNodes>
          <leafValues>
            5.5485230684280396e-01 -1.9325153529644012e-01</leafValues></_>
        <_>
          <internalNodes>
            0 -1 11 2.0464766770601273e-02</internalNodes>
          <leafValues>
            -2.5621369481086731e-01 4.5528334379196167e-01</leafValues></_>
        <_>
          <internalNodes>
            0 -1 115 -2.2071719169616699e-01</internalNodes>
          <leafValues>
            4.5191943645477295e-01 -1.8056532740592957e-01</leafValues></_>
        <_>
          <internalNodes>
            0 -1 68 -2.3437882191501558e-05</internalNodes>
          <leafValues>
            -3.2977724075317383e-01 1.6222317516803741e-01</leafValues></_>
        <_>
          <internalNodes>
            0 -1 30 -1.0593678802251816e-02</internalNodes>
          <leafValues>
            -5.2995073795318604e-01 1.0434359312057495e-01</leafValues></_>
        <_>
          <internalNodes>
            0 -1 184 1.7713679699227214e-04</internalNodes>
          <leafValues>
            -3.1890586018562317e-01 1.8837104737758636e-01</leafValues></_>
        <_>
          <internalNodes>
            0 -1 31 8.8126061018556356e-04</internalNodes>
          <leafValues>
            1.2235932797193527e-01 -5.0079345703125000e-01</leafValues></_>
        <_>
          <internalNodes>
            0 -1 243 3.3238311298191547e-03</internalNodes>
          <leafValues>
            -1.5844129025936127e-01 3.4374016523361206e-01</leafValues></_>
        <_>
          <internalNodes>
            0 -1 353 -5.3687240324507002e-06</internalNodes>
          <leafValues>
            -3.3695438504219055e-01 1.7375174164772034e-01</leafValues></_>
        <_>
          <internalNodes>
            0 -1 95 -1.2099474668502808e-02</internalNodes>
          <leafValues>
            6.8607074022293091e-01 -7.9111881554126740e-02</leafValues></_>
        <_>
          <internalNodes>
            0 -1 341 5.4188119247555733e-04</internalNodes>
          <leafValues>
            8.1993095576763153e-02 -6.4510881900787354e-01</leafValues></_>
        <_>
          <internalNodes>
            0 -1 428 -3.5890414437744766e-05</internalNodes>
          <leafValues>
            2.0197032392024994e-01 -2.5502249598503113e-01</leafValues></_>
        <_>
          <internalNodes>
            0 -1 273 1.2071087956428528e-02</internalNodes>
          <leafValues>
            -9.7738854587078094e-02 5.8783656358718872e-01</leafValues></_>
        <_>
          <internalNodes>
            0 -1 6 5.5019554565660655e-05</internalNodes>
          <leafValues>
            -2.9738798737525940e-01 1.8639491498470306e-01</leafValues></_>
        <_>
          <internalNodes>
            0 -1 102 -2.0180763385724276e-05</internalNodes>
          <leafValues>
            -3.9002826809883118e-01 1.2597170472145081e-01</leafValues></_>
        <_>
          <internalNodes>
            0 -1 177 8.5065951570868492e-03</internalNodes>
          <leafValues>
            -1.7105892300605774e-01 3.8013103604316711e-01</leafValues></_>
        <_>
          <internalNodes>
            0 -1 409 -4.5941778807900846e-06</internalNodes>
          <leafValues>
            -2.8963986039161682e-01 1.9061797857284546e-01</leafValues></_>
        <_>
          <internalNodes>
            0 -1 420 2.3564780130982399e-03</internalNodes>
          <leafValues>
            -1.6283506155014038e-01 3.5055556893348694e-01</leafValues></_>
        <_>
          <internalNodes>
            0 -1 400 -1.0141637176275253e-05</internalNodes>
          <leafValues>
            -3.6368295550346375e-01 1.6002477705478668e-01</leafValues></_>
        <_>
          <internalNodes>
            0 -1 294 5.2587203681468964e-03</internalNodes>
          <leafValues>
            -3.0870091915130615e-01 2.2408361732959747e-01</leafValues></_>
        <_>
          <internalNodes>
            0 -1 253 1.2675054676947184e-05</internalNodes>
          <leafValues>
            -2.0065531134605408e-01 2.8859046101570129e-01</leafValues></_>
        <_>
          <internalNodes>
            0 -1 48 -8.6872503161430359e-02</internalNodes>
          <leafValues>
            4.5226591825485229e-01 -1.5646620094776154e-01</leafValues></_>
        <_>
          <internalNodes>
            0 -1 355 -2.9493996407836676e-04</internalNodes>
          <leafValues>
            -3.9217469096183777e-01 1.5134489536285400e-01</leafValues></_>
        <_>
          <internalNodes>
            0 -1 50 -4.2832130020542536e-06</internalNodes>
          <leafValues>
            3.3638486266136169e-01 -1.6305211186408997e-01</leafValues></_>
        <_>
          <internalNodes>
            0 -1 132 -4.6437262426479720e-06</internalNodes>
          <leafValues>
            -3.4601536393165588e-01 1.6157680749893188e-01</leafValues></_>
        <_>
          <internalNodes>
            0 -1 25 -1.7692451365292072e-05</internalNodes>
          <leafValues>
            3.9640590548515320e-01 -1.5619388222694397e-01</leafValues></_>
        <_>
          <internalNodes>
            0 -1 263 -1.0624544302118011e-05</internalNodes>
          <leafValues>
            3.7189984321594238e-01 -1.5879856050014496e-01</leafValues></_>
        <_>
          <internalNodes>
            0 -1 307 -1.4759612895431928e-05</internalNodes>
          <leafValues>
            4.0594702959060669e-01 -1.3765759766101837e-01</leafValues></_>
        <_>
          <internalNodes>
            0 -1 375 4.5941778807900846e-06</internalNodes>
          <leafValues>
            1.7668621242046356e-01 -3.8006126880645752e-01</leafValues></_>
        <_>
          <internalNodes>
            0 -1 41 8.5996332927607000e-05</internalNodes>
          <leafValues>
            -3.3867317438125610e-01 2.0068886876106262e-01</leafValues></_>
        <_>
          <internalNodes>
            0 -1 175 -2.1766801364719868e-04</internalNodes>
          <leafValues>
            -3.2021710276603699e-01 2.0291164517402649e-01</leafValues></_></weakClassifiers></_>
    <!-- stage 16 -->
    <_>
      <maxWeakCount>31</maxWeakCount>
      <stageThreshold>-1.0900537967681885e+00</stageThreshold>
      <weakClassifiers>
        <_>
          <internalNodes>
            0 -1 146 -6.7633232101798058e-03</internalNodes>
          <leafValues>
            5.2304607629776001e-01 -2.0265780389308929e-01</leafValues></_>
        <_>
          <internalNodes>
            0 -1 312 6.0457922518253326e-03</internalNodes>
          <leafValues>
            -3.1067422032356262e-01 2.8517419099807739e-01</leafValues></_>
        <_>
          <internalNodes>
            0 -1 414 -1.6371863603126258e-04</internalNodes>
          <leafValues>
            -5.4765105247497559e-01 1.3715821504592896e-01</leafValues></_>
        <_>
          <internalNodes>
            0 -1 119 -1.6508134649484418e-05</internalNodes>
          <leafValues>
            -4.3002030253410339e-01 1.5806704759597778e-01</leafValues></_>
        <_>
          <internalNodes>
            0 -1 282 2.6300370693206787e-02</internalNodes>
          <leafValues>
            -3.3658352494239807e-01 1.8462336063385010e-01</leafValues></_>
        <_>
          <internalNodes>
            0 -1 323 -1.4735190197825432e-02</internalNodes>
          <leafValues>
            1.4624245464801788e-01 -3.9412325620651245e-01</leafValues></_>
        <_>
          <internalNodes>
            0 -1 183 -3.0772172613069415e-04</internalNodes>
          <leafValues>
            -4.2004066705703735e-01 1.4499238133430481e-01</leafValues></_>
        <_>
          <internalNodes>
            0 -1 163 -4.3050296604633331e-02</internalNodes>
          <leafValues>
            1.6388216614723206e-01 -3.3446747064590454e-01</leafValues></_>
        <_>
          <internalNodes>
            0 -1 47 2.5391127914190292e-02</internalNodes>
          <leafValues>
            -1.0768752545118332e-01 4.7648391127586365e-01</leafValues></_>
        <_>
          <internalNodes>
            0 -1 370 -1.7034562915796414e-05</internalNodes>
          <leafValues>
            -3.8273277878761292e-01 1.5608936548233032e-01</leafValues></_>
        <_>
          <internalNodes>
            0 -1 438 -2.0929881429765373e-05</internalNodes>
          <leafValues>
            4.1469377279281616e-01 -1.3016983866691589e-01</leafValues></_>
        <_>
          <internalNodes>
            0 -1 34 4.3504439294338226e-02</internalNodes>
          <leafValues>
            -1.6085615754127502e-01 4.1341176629066467e-01</leafValues></_>
        <_>
          <internalNodes>
            0 -1 88 4.8285405682690907e-06</internalNodes>
          <leafValues>
            2.3166748881340027e-01 -2.6452755928039551e-01</leafValues></_>
        <_>
          <internalNodes>
            0 -1 83 4.1041344404220581e-02</internalNodes>
          <leafValues>
            -1.2213219702243805e-01 4.4802984595298767e-01</leafValues></_>
        <_>
          <internalNodes>
            0 -1 370 1.0637179002515040e-05</internalNodes>
          <leafValues>
            1.6743749380111694e-01 -3.9010778069496155e-01</leafValues></_>
        <_>
          <internalNodes>
            0 -1 255 3.6868572351522744e-05</internalNodes>
          <leafValues>
            -2.2337654232978821e-01 2.7291247248649597e-01</leafValues></_>
        <_>
          <internalNodes>
            0 -1 390 4.1610177140682936e-04</internalNodes>
          <leafValues>
            1.0127871483564377e-01 -6.0885357856750488e-01</leafValues></_>
        <_>
          <internalNodes>
            0 -1 193 -4.5375758782029152e-04</internalNodes>
          <leafValues>
            -5.2394491434097290e-01 9.9047832190990448e-02</leafValues></_>
        <_>
          <internalNodes>
            0 -1 300 8.5142957686912268e-05</internalNodes>
          <leafValues>
            -1.9886498153209686e-01 2.8519073128700256e-01</leafValues></_>
        <_>
          <internalNodes>
            0 -1 215 2.4841190315783024e-03</internalNodes>
          <leafValues>
            1.3410724699497223e-01 -4.4604215025901794e-01</leafValues></_>
        <_>
          <internalNodes>
            0 -1 225 -3.2684591133147478e-05</internalNodes>
          <leafValues>
            2.9206189513206482e-01 -1.9769008457660675e-01</leafValues></_>
        <_>
          <internalNodes>
            0 -1 77 3.1932835554471239e-05</internalNodes>
          <leafValues>
            1.4630658924579620e-01 -3.9267358183860779e-01</leafValues></_>
        <_>
          <internalNodes>
            0 -1 340 5.8147452364210039e-06</internalNodes>
          <leafValues>
            -2.3440498113632202e-01 2.5630828738212585e-01</leafValues></_>
        <_>
          <internalNodes>
            0 -1 126 -5.0603656563907862e-04</internalNodes>
          <leafValues>
            2.5053915381431580e-01 -2.1737562119960785e-01</leafValues></_>
        <_>
          <internalNodes>
            0 -1 155 2.8907456435263157e-03</internalNodes>
          <leafValues>
            -1.7441897094249725e-01 3.3743929862976074e-01</leafValues></_>
        <_>
          <internalNodes>
            0 -1 10 -3.0950427055358887e-01</internalNodes>
          <leafValues>
            -6.0179996490478516e-01 1.0487534105777740e-01</leafValues></_>
        <_>
          <internalNodes>
            0 -1 192 -2.4694064632058144e-04</internalNodes>
          <leafValues>
            1.4302253723144531e-01 -3.9647141098976135e-01</leafValues></_>
        <_>
          <internalNodes>
            0 -1 92 3.2494350307388231e-05</internalNodes>
          <leafValues>
            1.3834953308105469e-01 -4.2806190252304077e-01</leafValues></_>
        <_>
          <internalNodes>
            0 -1 65 -5.2079616580158472e-04</internalNodes>
          <leafValues>
            -5.0379496812820435e-01 1.2230272591114044e-01</leafValues></_>
        <_>
          <internalNodes>
            0 -1 434 1.3561803825723473e-05</internalNodes>
          <leafValues>
            -1.9721314311027527e-01 3.5522377490997314e-01</leafValues></_>
        <_>
          <internalNodes>
            0 -1 345 4.0274539060192183e-05</internalNodes>
          <leafValues>
            1.4544869959354401e-01 -4.1262680292129517e-01</leafValues></_></weakClassifiers></_>
    <!-- stage 17 -->
    <_>
      <maxWeakCount>31</maxWeakCount>
      <stageThreshold>-1.0133029222488403e+00</stageThreshold>
      <weakClassifiers>
        <_>
          <internalNodes>
            0 -1 87 -2.3816185072064400e-02</internalNodes>
          <leafValues>
            5.9615385532379150e-01 -1.2500000000000000e-01</leafValues></_>
        <_>
          <internalNodes>
            0 -1 257 2.3558807373046875e-01</internalNodes>
          <leafValues>
            -1.7914791405200958e-01 5.0684058666229248e-01</leafValues></_>
        <_>
          <internalNodes>
            0 -1 440 3.2279282808303833e-02</internalNodes>
          <leafValues>
            -1.3668957352638245e-01 5.6611925363540649e-01</leafValues></_>
        <_>
          <internalNodes>
            0 -1 360 -1.6848384984768927e-04</internalNodes>
          <leafValues>
            -4.3072983622550964e-01 1.6339617967605591e-01</leafValues></_>
        <_>
          <internalNodes>
            0 -1 29 -1.1468521319329739e-02</internalNodes>
          <leafValues>
            -4.5348334312438965e-01 1.1639028042554855e-01</leafValues></_>
        <_>
          <internalNodes>
            0 -1 200 1.5529063603025861e-05</internalNodes>
          <leafValues>
            -2.0666329562664032e-01 2.9158034920692444e-01</leafValues></_>
        <_>
          <internalNodes>
            0 -1 411 -1.2350266842986457e-05</internalNodes>
          <leafValues>
            -3.3756554126739502e-01 1.4712199568748474e-01</leafValues></_>
        <_>
          <internalNodes>
            0 -1 295 -2.3065108805894852e-02</internalNodes>
          <leafValues>
            5.5717438459396362e-01 -1.2942631542682648e-01</leafValues></_>
        <_>
          <internalNodes>
            0 -1 265 -1.1317786629660986e-05</internalNodes>
          <leafValues>
            2.4475300312042236e-01 -2.4394494295120239e-01</leafValues></_>
        <_>
          <internalNodes>
            0 -1 230 -1.0381699212302919e-05</internalNodes>
          <leafValues>
            2.7992373704910278e-01 -1.9466002285480499e-01</leafValues></_>
        <_>
          <internalNodes>
            0 -1 109 -1.9799706933554262e-05</internalNodes>
          <leafValues>
            -3.2872787117958069e-01 1.7732408642768860e-01</leafValues></_>
        <_>
          <internalNodes>
            0 -1 206 1.3016684679314494e-03</internalNodes>
          <leafValues>
            1.5687458217144012e-01 -3.5318058729171753e-01</leafValues></_>
        <_>
          <internalNodes>
            0 -1 61 9.0426281094551086e-03</internalNodes>
          <leafValues>
            -2.0493175089359283e-01 2.7043285965919495e-01</leafValues></_>
        <_>
          <internalNodes>
            0 -1 214 4.3364648263377603e-06</internalNodes>
          <leafValues>
            -1.9790345430374146e-01 2.7881473302841187e-01</leafValues></_>
        <_>
          <internalNodes>
            0 -1 173 -1.1783575246226974e-05</internalNodes>
          <leafValues>
            -3.1083044409751892e-01 2.0540133118629456e-01</leafValues></_>
        <_>
          <internalNodes>
            0 -1 209 -4.4479388743638992e-03</internalNodes>
          <leafValues>
            -6.1665010452270508e-01 9.9165700376033783e-02</leafValues></_>
        <_>
          <internalNodes>
            0 -1 122 1.3106038750265725e-05</internalNodes>
          <leafValues>
            -2.1589510142803192e-01 2.7178955078125000e-01</leafValues></_>
        <_>
          <internalNodes>
            0 -1 161 -3.4216701984405518e-02</internalNodes>
          <leafValues>
            2.6085501909255981e-01 -2.1252822875976562e-01</leafValues></_>
        <_>
          <internalNodes>
            0 -1 397 1.5336028809542768e-05</internalNodes>
          <leafValues>
            1.9489704072475433e-01 -3.2895782589912415e-01</leafValues></_>
        <_>
          <internalNodes>
            0 -1 285 -6.3678426668047905e-03</internalNodes>
          <leafValues>
            3.9617368578910828e-01 -1.3772708177566528e-01</leafValues></_>
        <_>
          <internalNodes>
            0 -1 423 -3.2934374758042395e-04</internalNodes>
          <leafValues>
            -5.7225793600082397e-01 1.1737559735774994e-01</leafValues></_>
        <_>
          <internalNodes>
            0 -1 181 -8.4434701420832425e-05</internalNodes>
          <leafValues>
            -3.3697214722633362e-01 1.6962319612503052e-01</leafValues></_>
        <_>
          <internalNodes>
            0 -1 131 -1.0307472257409245e-04</internalNodes>
          <leafValues>
            2.6689261198043823e-01 -2.6482197642326355e-01</leafValues></_>
        <_>
          <internalNodes>
            0 -1 433 4.3952741179964505e-06</internalNodes>
          <leafValues>
            -1.7634654045104980e-01 3.5166189074516296e-01</leafValues></_>
        <_>
          <internalNodes>
            0 -1 274 -3.4647518768906593e-03</internalNodes>
          <leafValues>
            -7.7298569679260254e-01 8.2726255059242249e-02</leafValues></_>
        <_>
          <internalNodes>
            0 -1 28 2.0885947742499411e-04</internalNodes>
          <leafValues>
            -3.2621970772743225e-01 1.8048717081546783e-01</leafValues></_>
        <_>
          <internalNodes>
            0 -1 316 -4.1546551510691643e-03</internalNodes>
          <leafValues>
            8.4409809112548828e-01 -8.2119978964328766e-02</leafValues></_>
        <_>
          <internalNodes>
            0 -1 435 -4.2737824514915701e-06</internalNodes>
          <leafValues>
            2.6068037748336792e-01 -2.1122728288173676e-01</leafValues></_>
        <_>
          <internalNodes>
            0 -1 357 -1.0746234329417348e-04</internalNodes>
          <leafValues>
            -4.4810336828231812e-01 1.4477214217185974e-01</leafValues></_>
        <_>
          <internalNodes>
            0 -1 213 -2.0238296128809452e-03</internalNodes>
          <leafValues>
            3.3277085423469543e-01 -1.8110257387161255e-01</leafValues></_>
        <_>
          <internalNodes>
            0 -1 212 4.6822478907415643e-06</internalNodes>
          <leafValues>
            -1.6962081193923950e-01 3.2498347759246826e-01</leafValues></_></weakClassifiers></_>
    <!-- stage 18 -->
    <_>
      <maxWeakCount>35</maxWeakCount>
      <stageThreshold>-1.0463428497314453e+00</stageThreshold>
      <weakClassifiers>
        <_>
          <internalNodes>
            0 -1 144 -1.5483919531106949e-02</internalNodes>
          <leafValues>
            5.1844662427902222e-01 -2.3508772253990173e-01</leafValues></_>
        <_>
          <internalNodes>
            0 -1 130 -1.0947210284939501e-05</internalNodes>
          <leafValues>
            -3.5898059606552124e-01 2.4952705204486847e-01</leafValues></_>
        <_>
          <internalNodes>
            0 -1 299 1.1253590695559978e-02</internalNodes>
          <leafValues>
            -3.3573558926582336e-01 2.3517903685569763e-01</leafValues></_>
        <_>
          <internalNodes>
            0 -1 97 -4.5508891162171494e-06</internalNodes>
          <leafValues>
            -4.0880703926086426e-01 1.5177816152572632e-01</leafValues></_>
        <_>
          <internalNodes>
            0 -1 389 6.6646875347942114e-04</internalNodes>
          <leafValues>
            1.0892506688833237e-01 -5.7012528181076050e-01</leafValues></_>
        <_>
          <internalNodes>
            0 -1 361 -1.0819374583661556e-03</internalNodes>
          <leafValues>
            -5.0133997201919556e-01 1.1018909513950348e-01</leafValues></_>
        <_>
          <internalNodes>
            0 -1 252 -1.2170490663265809e-05</internalNodes>
          <leafValues>
            3.3033627271652222e-01 -1.8190026283264160e-01</leafValues></_>
        <_>
          <internalNodes>
            0 -1 172 -6.1584855429828167e-03</internalNodes>
          <leafValues>
            3.6559885740280151e-01 -1.9096365571022034e-01</leafValues></_>
        <_>
          <internalNodes>
            0 -1 70 -2.9089761665090919e-04</internalNodes>
          <leafValues>
            2.9421681165695190e-01 -2.4003741145133972e-01</leafValues></_>
        <_>
          <internalNodes>
            0 -1 134 -4.2859974200837314e-06</internalNodes>
          <leafValues>
            -3.6410084366798401e-01 2.0868784189224243e-01</leafValues></_>
        <_>
          <internalNodes>
            0 -1 82 4.0723368525505066e-02</internalNodes>
          <leafValues>
            -1.3814282417297363e-01 5.2802485227584839e-01</leafValues></_>
        <_>
          <internalNodes>
            0 -1 62 -4.0923535823822021e-02</internalNodes>
          <leafValues>
            3.0056115984916687e-01 -2.2803676128387451e-01</leafValues></_>
        <_>
          <internalNodes>
            0 -1 416 2.0952461636625230e-04</internalNodes>
          <leafValues>
            1.6066470742225647e-01 -3.2824477553367615e-01</leafValues></_>
        <_>
          <internalNodes>
            0 -1 335 9.1010099276900291e-04</internalNodes>
          <leafValues>
            -7.9419270157814026e-02 6.0353952646255493e-01</leafValues></_>
        <_>
          <internalNodes>
            0 -1 313 1.1686414945870638e-03</internalNodes>
          <leafValues>
            -7.5464800000190735e-02 7.5551950931549072e-01</leafValues></_>
        <_>
          <internalNodes>
            0 -1 349 -7.7971189966774546e-06</internalNodes>
          <leafValues>
            -3.8261207938194275e-01 1.5843191742897034e-01</leafValues></_>
        <_>
          <internalNodes>
            0 -1 279 2.0220571968820877e-05</internalNodes>
          <leafValues>
            -2.1187992393970490e-01 2.9660612344741821e-01</leafValues></_>
        <_>
          <internalNodes>
            0 -1 319 2.2023180499672890e-03</internalNodes>
          <leafValues>
            -1.1073993146419525e-01 5.9172135591506958e-01</leafValues></_>
        <_>
          <internalNodes>
            0 -1 425 -2.2231848561204970e-04</internalNodes>
          <leafValues>
            -5.1132279634475708e-01 1.2428876757621765e-01</leafValues></_>
        <_>
          <internalNodes>
            0 -1 137 -1.2385209556668997e-03</internalNodes>
          <leafValues>
            2.6738339662551880e-01 -2.0696905255317688e-01</leafValues></_>
        <_>
          <internalNodes>
            0 -1 90 4.3672993342624977e-05</internalNodes>
          <leafValues>
            -2.0217624306678772e-01 3.2703909277915955e-01</leafValues></_>
        <_>
          <internalNodes>
            0 -1 232 5.9093197342008352e-04</internalNodes>
          <leafValues>
            1.4367410540580750e-01 -4.1989159584045410e-01</leafValues></_>
        <_>
          <internalNodes>
            0 -1 44 -3.6061105132102966e-01</internalNodes>
          <leafValues>
            3.5485899448394775e-01 -1.6639524698257446e-01</leafValues></_>
        <_>
          <internalNodes>
            0 -1 76 1.4046632684767246e-02</internalNodes>
          <leafValues>
            -1.4264191687107086e-01 4.1751027107238770e-01</leafValues></_>
        <_>
          <internalNodes>
            0 -1 98 1.0734379429777618e-05</internalNodes>
          <leafValues>
            2.0356808602809906e-01 -2.8087639808654785e-01</leafValues></_>
        <_>
          <internalNodes>
            0 -1 234 4.1281007725046948e-05</internalNodes>
          <leafValues>
            -2.0217695832252502e-01 2.8018876910209656e-01</leafValues></_>
        <_>
          <internalNodes>
            0 -1 445 -9.5700033853063360e-06</internalNodes>
          <leafValues>
            2.9823932051658630e-01 -1.9099991023540497e-01</leafValues></_>
        <_>
          <internalNodes>
            0 -1 382 -5.7317729442729615e-06</internalNodes>
          <leafValues>
            -3.5362517833709717e-01 1.5931747853755951e-01</leafValues></_>
        <_>
          <internalNodes>
            0 -1 344 -1.9306819012854248e-05</internalNodes>
          <leafValues>
            -3.1948712468147278e-01 1.8317423760890961e-01</leafValues></_>
        <_>
          <internalNodes>
            0 -1 267 1.4179424033500254e-04</internalNodes>
          <leafValues>
            -2.0135807991027832e-01 2.9434087872505188e-01</leafValues></_>
        <_>
          <internalNodes>
            0 -1 254 -4.2442006815690547e-06</internalNodes>
          <leafValues>
            3.1282868981361389e-01 -1.7433945834636688e-01</leafValues></_>
        <_>
          <internalNodes>
            0 -1 198 2.7981186285614967e-03</internalNodes>
          <leafValues>
            9.8856717348098755e-02 -5.7935178279876709e-01</leafValues></_>
        <_>
          <internalNodes>
            0 -1 394 4.5938363655295689e-06</internalNodes>
          <leafValues>
            1.0329209268093109e-01 -4.6855816245079041e-01</leafValues></_>
        <_>
          <internalNodes>
            0 -1 293 -6.0952466446906328e-04</internalNodes>
          <leafValues>
            -6.0733765363693237e-01 8.8644966483116150e-02</leafValues></_>
        <_>
          <internalNodes>
            0 -1 363 8.6039057350717485e-05</internalNodes>
          <leafValues>
            -1.7499871551990509e-01 3.1794998049736023e-01</leafValues></_></weakClassifiers></_>
    <!-- stage 19 -->
    <_>
      <maxWeakCount>32</maxWeakCount>
      <stageThreshold>-1.0392688512802124e+00</stageThreshold>
      <weakClassifiers>
        <_>
          <internalNodes>
            0 -1 27 1.0098710656166077e-02</internalNodes>
          <leafValues>
            -1.4738510549068451e-01 5.0877195596694946e-01</leafValues></_>
        <_>
          <internalNodes>
            0 -1 266 3.1035063788294792e-02</internalNodes>
          <leafValues>
            -1.2826122343540192e-01 5.7092893123626709e-01</leafValues></_>
        <_>
          <internalNodes>
            0 -1 376 -9.6967269200831652e-06</internalNodes>
          <leafValues>
            -4.3749979138374329e-01 1.8269352614879608e-01</leafValues></_>
        <_>
          <internalNodes>
            0 -1 133 -4.2545020733086858e-06</internalNodes>
          <leafValues>
            -3.9913538098335266e-01 1.6956190764904022e-01</leafValues></_>
        <_>
          <internalNodes>
            0 -1 324 1.9567762501537800e-03</internalNodes>
          <leafValues>
            -1.5290403366088867e-01 6.5615880489349365e-01</leafValues></_>
        <_>
          <internalNodes>
            0 -1 71 2.3581060304422863e-05</internalNodes>
          <leafValues>
            2.1503779292106628e-01 -3.2191643118858337e-01</leafValues></_>
        <_>
          <internalNodes>
            0 -1 46 4.9434185028076172e-02</internalNodes>
          <leafValues>
            -2.2792050242424011e-01 2.8322869539260864e-01</leafValues></_>
        <_>
          <internalNodes>
            0 -1 369 -4.0857158601284027e-03</internalNodes>
          <leafValues>
            1.7790845036506653e-01 -4.2211151123046875e-01</leafValues></_>
        <_>
          <internalNodes>
            0 -1 444 -1.1776523897424340e-03</internalNodes>
          <leafValues>
            -5.7919102907180786e-01 9.1679349541664124e-02</leafValues></_>
        <_>
          <internalNodes>
            0 -1 388 -1.0744391147454735e-05</internalNodes>
          <leafValues>
            -3.0467826128005981e-01 1.8112400174140930e-01</leafValues></_>
        <_>
          <internalNodes>
            0 -1 217 1.3056046736892313e-04</internalNodes>
          <leafValues>
            -5.2398520708084106e-01 1.0202825814485550e-01</leafValues></_>
        <_>
          <internalNodes>
            0 -1 346 1.1891803296748549e-05</internalNodes>
          <leafValues>
            1.4684414863586426e-01 -3.6294254660606384e-01</leafValues></_>
        <_>
          <internalNodes>
            0 -1 244 -1.8483001738786697e-02</internalNodes>
          <leafValues>
            5.0968837738037109e-01 -1.2222027778625488e-01</leafValues></_>
        <_>
          <internalNodes>
            0 -1 94 1.8947904929518700e-02</internalNodes>
          <leafValues>
            -1.5478678047657013e-01 4.3797916173934937e-01</leafValues></_>
        <_>
          <internalNodes>
            0 -1 426 -2.4325625417986885e-05</internalNodes>
          <leafValues>
            3.7162742018699646e-01 -1.6561226546764374e-01</leafValues></_>
        <_>
          <internalNodes>
            0 -1 110 3.0179027817212045e-05</internalNodes>
          <leafValues>
            1.7955774068832397e-01 -2.9484194517135620e-01</leafValues></_>
        <_>
          <internalNodes>
            0 -1 424 -3.2377116440329701e-05</internalNodes>
          <leafValues>
            -3.1260228157043457e-01 1.6815733909606934e-01</leafValues></_>
        <_>
          <internalNodes>
            0 -1 269 -2.1428458392620087e-02</internalNodes>
          <leafValues>
            6.9896590709686279e-01 -7.9020552337169647e-02</leafValues></_>
        <_>
          <internalNodes>
            0 -1 315 1.6124773537740111e-04</internalNodes>
          <leafValues>
            -3.9097648859024048e-01 1.7617645859718323e-01</leafValues></_>
        <_>
          <internalNodes>
            0 -1 5 1.0982458293437958e-01</internalNodes>
          <leafValues>
            -2.1756248176097870e-01 2.5836929678916931e-01</leafValues></_>
        <_>
          <internalNodes>
            0 -1 157 -1.1019357771147043e-05</internalNodes>
          <leafValues>
            -3.5079932212829590e-01 1.4771452546119690e-01</leafValues></_>
        <_>
          <internalNodes>
            0 -1 38 1.3429249823093414e-01</internalNodes>
          <leafValues>
            -1.1124542355537415e-01 5.5878549814224243e-01</leafValues></_>
        <_>
          <internalNodes>
            0 -1 329 5.2168108522891998e-03</internalNodes>
          <leafValues>
            -1.6161839663982391e-01 3.6501500010490417e-01</leafValues></_>
        <_>
          <internalNodes>
            0 -1 235 3.0251424759626389e-02</internalNodes>
          <leafValues>
            1.2626726925373077e-01 -4.6618553996086121e-01</leafValues></_>
        <_>
          <internalNodes>
            0 -1 1 6.7084017209708691e-03</internalNodes>
          <leafValues>
            1.1574255675077438e-01 -4.1947972774505615e-01</leafValues></_>
        <_>
          <internalNodes>
            0 -1 174 5.8179663028568029e-05</internalNodes>
          <leafValues>
            -1.9187687337398529e-01 2.8137654066085815e-01</leafValues></_>
        <_>
          <internalNodes>
            0 -1 219 -9.2567825049627572e-06</internalNodes>
          <leafValues>
            2.8358590602874756e-01 -1.9089251756668091e-01</leafValues></_>
        <_>
          <internalNodes>
            0 -1 156 -4.2545020733086858e-06</internalNodes>
          <leafValues>
            -4.0068563818931580e-01 1.5310747921466827e-01</leafValues></_>
        <_>
          <internalNodes>
            0 -1 72 1.0163027327507734e-03</internalNodes>
          <leafValues>
            -2.0350670814514160e-01 2.8691247105598450e-01</leafValues></_>
        <_>
          <internalNodes>
            0 -1 241 7.1006279904395342e-04</internalNodes>
          <leafValues>
            1.0358137637376785e-01 -5.9016287326812744e-01</leafValues></_>
        <_>
          <internalNodes>
            0 -1 421 -4.9854502321977634e-06</internalNodes>
          <leafValues>
            -3.3943936228752136e-01 1.5741102397441864e-01</leafValues></_>
        <_>
          <internalNodes>
            0 -1 326 -1.6725545283406973e-03</internalNodes>
          <leafValues>
            3.9564758539199829e-01 -1.5381576120853424e-01</leafValues></_></weakClassifiers></_></stages>
  <features>
    <_>
      <rects>
        <_>
          0 0 15 1 -1.</_>
        <_>
          5 0 5 1 3.</_></rects>
      <tilted>0</tilted></_>
    <_>
      <rects>
        <_>
          0 0 21 2 -1.</_>
        <_>
          7 0 7 2 3.</_></rects>
      <tilted>0</tilted></_>
    <_>
      <rects>
        <_>
          0 0 10 28 -1.</_>
        <_>
          0 7 10 14 2.</_></rects>
      <tilted>0</tilted></_>
    <_>
      <rects>
        <_>
          0 0 22 30 -1.</_>
        <_>
          0 10 22 10 3.</_></rects>
      <tilted>0</tilted></_>
    <_>
      <rects>
        <_>
          0 1 2 2 -1.</_>
        <_>
          1 1 1 2 2.</_></rects>
      <tilted>0</tilted></_>
    <_>
      <rects>
        <_>
          0 1 38 27 -1.</_>
        <_>
          0 10 38 9 3.</_></rects>
      <tilted>0</tilted></_>
    <_>
      <rects>
        <_>
          0 2 6 14 -1.</_>
        <_>
          3 2 3 14 2.</_></rects>
      <tilted>0</tilted></_>
    <_>
      <rects>
        <_>
          0 2 20 26 -1.</_>
        <_>
          5 2 10 26 2.</_></rects>
      <tilted>0</tilted></_>
    <_>
      <rects>
        <_>
          0 3 20 22 -1.</_>
        <_>
          5 3 10 22 2.</_></rects>
      <tilted>0</tilted></_>
    <_>
      <rects>
        <_>
          0 3 20 25 -1.</_>
        <_>
          5 3 10 25 2.</_></rects>
      <tilted>0</tilted></_>
    <_>
      <rects>
        <_>
          0 3 45 12 -1.</_>
        <_>
          15 3 15 12 3.</_></rects>
      <tilted>0</tilted></_>
    <_>
      <rects>
        <_>
          0 5 6 24 -1.</_>
        <_>
          3 5 3 24 2.</_></rects>
      <tilted>0</tilted></_>
    <_>
      <rects>
        <_>
          0 6 2 2 -1.</_>
        <_>
          1 6 1 2 2.</_></rects>
      <tilted>0</tilted></_>
    <_>
      <rects>
        <_>
          0 6 15 17 -1.</_>
        <_>
          5 6 5 17 3.</_></rects>
      <tilted>0</tilted></_>
    <_>
      <rects>
        <_>
          0 6 10 19 -1.</_>
        <_>
          5 6 5 19 2.</_></rects>
      <tilted>0</tilted></_>
    <_>
      <rects>
        <_>
          0 7 16 17 -1.</_>
        <_>
          4 7 8 17 2.</_></rects>
      <tilted>0</tilted></_>
    <_>
      <rects>
        <_>
          0 7 15 19 -1.</_>
        <_>
          5 7 5 19 3.</_></rects>
      <tilted>0</tilted></_>
    <_>
      <rects>
        <_>
          0 7 10 20 -1.</_>
        <_>
          5 7 5 20 2.</_></rects>
      <tilted>0</tilted></_>
    <_>
      <rects>
        <_>
          0 8 28 8 -1.</_>
        <_>
          7 8 14 8 2.</_></rects>
      <tilted>0</tilted></_>
    <_>
      <rects>
        <_>
          0 8 27 18 -1.</_>
        <_>
          9 14 9 6 9.</_></rects>
      <tilted>0</tilted></_>
    <_>
      <rects>
        <_>
          0 9 12 10 -1.</_>
        <_>
          3 9 6 10 2.</_></rects>
      <tilted>0</tilted></_>
    <_>
      <rects>
        <_>
          0 10 1 18 -1.</_>
        <_>
          0 19 1 9 2.</_></rects>
      <tilted>0</tilted></_>
    <_>
      <rects>
        <_>
          0 10 8 7 -1.</_>
        <_>
          4 10 4 7 2.</_></rects>
      <tilted>0</tilted></_>
    <_>
      <rects>
        <_>
          0 10 15 12 -1.</_>
        <_>
          5 10 5 12 3.</_></rects>
      <tilted>0</tilted></_>
    <_>
      <rects>
        <_>
          0 11 21 18 -1.</_>
        <_>
          7 11 7 18 3.</_></rects>
      <tilted>0</tilted></_>
    <_>
      <rects>
        <_>
          0 13 12 2 -1.</_>
        <_>
          3 13 6 2 2.</_></rects>
      <tilted>0</tilted></_>
    <_>
      <rects>
        <_>
          0 13 12 4 -1.</_>
        <_>
          4 13 4 4 3.</_></rects>
      <tilted>0</tilted></_>
    <_>
      <rects>
        <_>
          0 13 12 5 -1.</_>
        <_>
          4 13 4 5 3.</_></rects>
      <tilted>0</tilted></_>
    <_>
      <rects>
        <_>
          0 14 10 3 -1.</_>
        <_>
          5 14 5 3 2.</_></rects>
      <tilted>0</tilted></_>
    <_>
      <rects>
        <_>
          0 15 42 1 -1.</_>
        <_>
          21 15 21 1 2.</_></rects>
      <tilted>0</tilted></_>
    <_>
      <rects>
        <_>
          0 29 44 1 -1.</_>
        <_>
          11 29 22 1 2.</_></rects>
      <tilted>0</tilted></_>
    <_>
      <rects>
        <_>
          1 0 4 3 -1.</_>
        <_>
          3 0 2 3 2.</_></rects>
      <tilted>0</tilted></_>
    <_>
      <rects>
        <_>
          1 1 9 28 -1.</_>
        <_>
          1 8 9 14 2.</_></rects>
      <tilted>0</tilted></_>
    <_>
      <rects>
        <_>
          1 1 16 27 -1.</_>
        <_>
          1 10 16 9 3.</_></rects>
      <tilted>0</tilted></_>
    <_>
      <rects>
        <_>
          1 9 11 18 -1.</_>
        <_>
          1 15 11 6 3.</_></rects>
      <tilted>0</tilted></_>
    <_>
      <rects>
        <_>
          2 1 6 27 -1.</_>
        <_>
          2 10 6 9 3.</_></rects>
      <tilted>0</tilted></_>
    <_>
      <rects>
        <_>
          2 2 12 22 -1.</_>
        <_>
          6 2 4 22 3.</_></rects>
      <tilted>0</tilted></_>
    <_>
      <rects>
        <_>
          2 3 22 18 -1.</_>
        <_>
          2 3 11 9 2.</_>
        <_>
          13 12 11 9 2.</_></rects>
      <tilted>0</tilted></_>
    <_>
      <rects>
        <_>
          2 4 36 22 -1.</_>
        <_>
          2 4 18 11 2.</_>
        <_>
          20 15 18 11 2.</_></rects>
      <tilted>0</tilted></_>
    <_>
      <rects>
        <_>
          2 6 42 20 -1.</_>
        <_>
          2 6 21 10 2.</_>
        <_>
          23 16 21 10 2.</_></rects>
      <tilted>0</tilted></_>
    <_>
      <rects>
        <_>
          2 8 2 10 -1.</_>
        <_>
          2 8 1 5 2.</_>
        <_>
          3 13 1 5 2.</_></rects>
      <tilted>0</tilted></_>
    <_>
      <rects>
        <_>
          2 13 8 3 -1.</_>
        <_>
          4 13 4 3 2.</_></rects>
      <tilted>0</tilted></_>
    <_>
      <rects>
        <_>
          2 15 12 11 -1.</_>
        <_>
          6 15 4 11 3.</_></rects>
      <tilted>0</tilted></_>
    <_>
      <rects>
        <_>
          2 26 16 1 -1.</_>
        <_>
          10 26 8 1 2.</_></rects>
      <tilted>0</tilted></_>
    <_>
      <rects>
        <_>
          3 1 39 26 -1.</_>
        <_>
          16 1 13 26 3.</_></rects>
      <tilted>0</tilted></_>
    <_>
      <rects>
        <_>
          3 2 21 25 -1.</_>
        <_>
          10 2 7 25 3.</_></rects>
      <tilted>0</tilted></_>
    <_>
      <rects>
        <_>
